digraph Tree {
node [shape=box, style="filled, rounded", color="black", fontname="helvetica"] ;
edge [fontname="helvetica"] ;
0 [label=<daysAgo &le; 129.5<br/>squared_error = 3585.222<br/>samples = 30354<br/>value = 133.087>, fillcolor="#f3c4a2"] ;
1 [label=<daysAgo &le; 86.5<br/>squared_error = 1212.257<br/>samples = 14602<br/>value = 83.46>, fillcolor="#f8decc"] ;
0 -> 1 [labeldistance=2.5, labelangle=45, headlabel="True"] ;
2 [label=<daysAgo &le; 68.5<br/>squared_error = 623.759<br/>samples = 7976<br/>value = 63.592>, fillcolor="#fae9dc"] ;
1 -> 2 ;
3 [label=<near_holiday_1.0 &le; 0.5<br/>squared_error = 471.028<br/>samples = 5236<br/>value = 56.552>, fillcolor="#fbede2"] ;
2 -> 3 ;
4 [label=<near_holiday_-1.0 &le; 0.5<br/>squared_error = 420.572<br/>samples = 4311<br/>value = 53.016>, fillcolor="#fcefe5"] ;
3 -> 4 ;
5 [label=<arrival_airport &le; 3.5<br/>squared_error = 351.791<br/>samples = 2723<br/>value = 47.249>, fillcolor="#fcf2ea"] ;
4 -> 5 ;
6 [label=<near_holiday_0.0 &le; 0.5<br/>squared_error = 306.771<br/>samples = 2190<br/>value = 49.778>, fillcolor="#fcf0e8"] ;
5 -> 6 ;
7 [label=<arrival_airport &le; 0.5<br/>squared_error = 286.95<br/>samples = 2064<br/>value = 48.857>, fillcolor="#fcf1e9"] ;
6 -> 7 ;
8 [label=<departure_weekday &le; 3.5<br/>squared_error = 310.205<br/>samples = 518<br/>value = 55.043>, fillcolor="#fbeee4"] ;
7 -> 8 ;
9 [label=<daysAgo &le; 56.5<br/>squared_error = 259.442<br/>samples = 337<br/>value = 60.307>, fillcolor="#fbebdf"] ;
8 -> 9 ;
10 [label=<squared_error = 187.871<br/>samples = 253<br/>value = 58.107>, fillcolor="#fbece1"] ;
9 -> 10 ;
11 [label=<squared_error = 406.027<br/>samples = 84<br/>value = 66.336>, fillcolor="#fae8da"] ;
9 -> 11 ;
12 [label=<price &le; 98.5<br/>squared_error = 266.237<br/>samples = 181<br/>value = 45.87>, fillcolor="#fcf2eb"] ;
8 -> 12 ;
13 [label=<squared_error = 209.565<br/>samples = 99<br/>value = 38.03>, fillcolor="#fdf7f2"] ;
12 -> 13 ;
14 [label=<squared_error = 170.658<br/>samples = 82<br/>value = 55.345>, fillcolor="#fbede3"] ;
12 -> 14 ;
15 [label=<price &le; 92.5<br/>squared_error = 261.002<br/>samples = 1546<br/>value = 46.711>, fillcolor="#fcf2eb"] ;
7 -> 15 ;
16 [label=<airport_distance_km &le; 1862.879<br/>squared_error = 231.146<br/>samples = 905<br/>value = 50.915>, fillcolor="#fcf0e7"] ;
15 -> 16 ;
17 [label=<squared_error = 223.444<br/>samples = 853<br/>value = 51.56>, fillcolor="#fcefe7"] ;
16 -> 17 ;
18 [label=<squared_error = 232.689<br/>samples = 52<br/>value = 39.759>, fillcolor="#fdf6f0"] ;
16 -> 18 ;
19 [label=<departure_weekday &le; 3.5<br/>squared_error = 240.669<br/>samples = 641<br/>value = 40.525>, fillcolor="#fdf5f0"] ;
15 -> 19 ;
20 [label=<squared_error = 209.608<br/>samples = 327<br/>value = 35.14>, fillcolor="#fef8f4"] ;
19 -> 20 ;
21 [label=<squared_error = 211.593<br/>samples = 314<br/>value = 46.112>, fillcolor="#fcf2eb"] ;
19 -> 21 ;
22 [label=<price &le; 106.5<br/>squared_error = 391.812<br/>samples = 126<br/>value = 64.678>, fillcolor="#fae8dc"] ;
6 -> 22 ;
23 [label=<arrival_airport &le; 1.5<br/>squared_error = 118.839<br/>samples = 47<br/>value = 75.7>, fillcolor="#f9e3d2"] ;
22 -> 23 ;
24 [label=<daysAgo &le; 63.5<br/>squared_error = 325.234<br/>samples = 11<br/>value = 64.125>, fillcolor="#fae9dc"] ;
23 -> 24 ;
25 [label=<squared_error = 36.972<br/>samples = 8<br/>value = 54.167>, fillcolor="#fbeee4"] ;
24 -> 25 ;
26 [label=<squared_error = 0.0<br/>samples = 3<br/>value = 94.0>, fillcolor="#f7d9c3"] ;
24 -> 26 ;
27 [label=<price &le; 99.5<br/>squared_error = 6.224<br/>samples = 36<br/>value = 79.13>, fillcolor="#f9e1cf"] ;
23 -> 27 ;
28 [label=<squared_error = 1.269<br/>samples = 31<br/>value = 78.239>, fillcolor="#f9e1d0"] ;
27 -> 28 ;
29 [label=<squared_error = 3.938<br/>samples = 5<br/>value = 84.25>, fillcolor="#f8decb"] ;
27 -> 29 ;
30 [label=<departure_weekday &le; 5.5<br/>squared_error = 437.987<br/>samples = 79<br/>value = 58.833>, fillcolor="#fbece0"] ;
22 -> 30 ;
31 [label=<departure_airport &le; 2.5<br/>squared_error = 437.418<br/>samples = 65<br/>value = 55.0>, fillcolor="#fbeee4"] ;
30 -> 31 ;
32 [label=<squared_error = 347.555<br/>samples = 46<br/>value = 64.395>, fillcolor="#fae9dc"] ;
31 -> 32 ;
33 [label=<squared_error = 0.0<br/>samples = 19<br/>value = 34.0>, fillcolor="#fef9f5"] ;
31 -> 33 ;
34 [label=<squared_error = 0.0<br/>samples = 14<br/>value = 78.0>, fillcolor="#f9e1d0"] ;
30 -> 34 ;
35 [label=<price &le; 42.5<br/>squared_error = 401.701<br/>samples = 533<br/>value = 36.712>, fillcolor="#fdf7f3"] ;
5 -> 35 ;
36 [label=<daysAgo &le; 49.5<br/>squared_error = 469.084<br/>samples = 58<br/>value = 62.589>, fillcolor="#fbeadd"] ;
35 -> 36 ;
37 [label=<near_holiday_0.0 &le; 0.5<br/>squared_error = 250.179<br/>samples = 37<br/>value = 49.085>, fillcolor="#fcf1e9"] ;
36 -> 37 ;
38 [label=<departure_weekday &le; 4.0<br/>squared_error = 150.136<br/>samples = 32<br/>value = 45.472>, fillcolor="#fcf3ec"] ;
37 -> 38 ;
39 [label=<squared_error = 73.497<br/>samples = 26<br/>value = 49.659>, fillcolor="#fcf0e8"] ;
38 -> 39 ;
40 [label=<squared_error = 20.0<br/>samples = 6<br/>value = 25.0>, fillcolor="#fffefd"] ;
38 -> 40 ;
41 [label=<squared_error = 0.0<br/>samples = 5<br/>value = 81.0>, fillcolor="#f9e0ce"] ;
37 -> 41 ;
42 [label=<departure_weekday &le; 2.5<br/>squared_error = 39.09<br/>samples = 21<br/>value = 84.722>, fillcolor="#f8decb"] ;
36 -> 42 ;
43 [label=<squared_error = 0.0<br/>samples = 12<br/>value = 91.0>, fillcolor="#f7dac5"] ;
42 -> 43 ;
44 [label=<departure_weekday &le; 4.0<br/>squared_error = 13.61<br/>samples = 9<br/>value = 79.7>, fillcolor="#f9e0cf"] ;
42 -> 44 ;
45 [label=<squared_error = 0.0<br/>samples = 1<br/>value = 65.0>, fillcolor="#fae8db"] ;
44 -> 45 ;
46 [label=<squared_error = 2.355<br/>samples = 8<br/>value = 80.474>, fillcolor="#f9e0ce"] ;
44 -> 46 ;
47 [label=<daysAgo &le; 56.5<br/>squared_error = 295.729<br/>samples = 475<br/>value = 33.381>, fillcolor="#fef9f6"] ;
35 -> 47 ;
48 [label=<departure_weekday &le; 0.5<br/>squared_error = 203.332<br/>samples = 349<br/>value = 30.47>, fillcolor="#fefbf8"] ;
47 -> 48 ;
49 [label=<price &le; 77.5<br/>squared_error = 39.056<br/>samples = 55<br/>value = 43.074>, fillcolor="#fdf4ee"] ;
48 -> 49 ;
50 [label=<squared_error = 19.74<br/>samples = 35<br/>value = 44.843>, fillcolor="#fdf3ec"] ;
49 -> 50 ;
51 [label=<squared_error = 57.529<br/>samples = 20<br/>value = 40.067>, fillcolor="#fdf6f0"] ;
49 -> 51 ;
52 [label=<departure_weekday &le; 4.5<br/>squared_error = 199.434<br/>samples = 294<br/>value = 28.269>, fillcolor="#fefcfa"] ;
48 -> 52 ;
53 [label=<squared_error = 256.832<br/>samples = 209<br/>value = 30.655>, fillcolor="#fefbf8"] ;
52 -> 53 ;
54 [label=<squared_error = 9.567<br/>samples = 85<br/>value = 22.396>, fillcolor="#ffffff"] ;
52 -> 54 ;
55 [label=<price &le; 52.0<br/>squared_error = 465.141<br/>samples = 126<br/>value = 41.601>, fillcolor="#fdf5ef"] ;
47 -> 55 ;
56 [label=<departure_weekday &le; 3.5<br/>squared_error = 156.69<br/>samples = 20<br/>value = 81.1>, fillcolor="#f9e0ce"] ;
55 -> 56 ;
57 [label=<squared_error = 8.0<br/>samples = 7<br/>value = 64.0>, fillcolor="#fae9dc"] ;
56 -> 57 ;
58 [label=<squared_error = 41.388<br/>samples = 13<br/>value = 88.429>, fillcolor="#f8dcc8"] ;
56 -> 58 ;
59 [label=<departure_weekday &le; 4.5<br/>squared_error = 181.915<br/>samples = 106<br/>value = 34.331>, fillcolor="#fef9f5"] ;
55 -> 59 ;
60 [label=<squared_error = 180.601<br/>samples = 74<br/>value = 38.375>, fillcolor="#fdf6f2"] ;
59 -> 60 ;
61 [label=<squared_error = 12.602<br/>samples = 32<br/>value = 23.047>, fillcolor="#fffffe"] ;
59 -> 61 ;
62 [label=<arrival_airport &le; 0.5<br/>squared_error = 382.171<br/>samples = 1588<br/>value = 63.016>, fillcolor="#fbe9dd"] ;
4 -> 62 ;
63 [label=<departure_weekday &le; 4.5<br/>squared_error = 130.978<br/>samples = 305<br/>value = 77.927>, fillcolor="#f9e1d0"] ;
62 -> 63 ;
64 [label=<price &le; 103.5<br/>squared_error = 65.918<br/>samples = 221<br/>value = 81.261>, fillcolor="#f9e0ce"] ;
63 -> 64 ;
65 [label=<daysAgo &le; 63.5<br/>squared_error = 69.672<br/>samples = 107<br/>value = 78.952>, fillcolor="#f9e1d0"] ;
64 -> 65 ;
66 [label=<departure_weekday &le; 1.5<br/>squared_error = 39.151<br/>samples = 83<br/>value = 77.504>, fillcolor="#f9e2d1"] ;
65 -> 66 ;
67 [label=<squared_error = 30.082<br/>samples = 30<br/>value = 74.792>, fillcolor="#f9e3d3"] ;
66 -> 67 ;
68 [label=<squared_error = 37.682<br/>samples = 53<br/>value = 79.072>, fillcolor="#f9e1cf"] ;
66 -> 68 ;
69 [label=<departure_weekday &le; 0.5<br/>squared_error = 146.691<br/>samples = 24<br/>value = 84.371>, fillcolor="#f8decb"] ;
65 -> 69 ;
70 [label=<squared_error = 16.0<br/>samples = 4<br/>value = 72.0>, fillcolor="#fae4d5"] ;
69 -> 70 ;
71 [label=<squared_error = 135.512<br/>samples = 20<br/>value = 86.931>, fillcolor="#f8ddc9"] ;
69 -> 71 ;
72 [label=<daysAgo &le; 41.5<br/>squared_error = 53.289<br/>samples = 114<br/>value = 83.355>, fillcolor="#f8decc"] ;
64 -> 72 ;
73 [label=<departure_weekday &le; 3.5<br/>squared_error = 46.201<br/>samples = 46<br/>value = 79.178>, fillcolor="#f9e1cf"] ;
72 -> 73 ;
74 [label=<squared_error = 17.67<br/>samples = 31<br/>value = 76.442>, fillcolor="#f9e2d2"] ;
73 -> 74 ;
75 [label=<squared_error = 52.426<br/>samples = 15<br/>value = 85.952>, fillcolor="#f8ddca"] ;
73 -> 75 ;
76 [label=<price &le; 115.0<br/>squared_error = 38.729<br/>samples = 68<br/>value = 86.127>, fillcolor="#f8ddc9"] ;
72 -> 76 ;
77 [label=<squared_error = 23.647<br/>samples = 13<br/>value = 92.45>, fillcolor="#f7dac4"] ;
76 -> 77 ;
78 [label=<squared_error = 31.223<br/>samples = 55<br/>value = 84.722>, fillcolor="#f8decb"] ;
76 -> 78 ;
79 [label=<price &le; 102.0<br/>squared_error = 193.624<br/>samples = 84<br/>value = 68.151>, fillcolor="#fae7d9"] ;
63 -> 79 ;
80 [label=<price &le; 99.5<br/>squared_error = 83.028<br/>samples = 28<br/>value = 56.15>, fillcolor="#fbede3"] ;
79 -> 80 ;
81 [label=<departure_weekday &le; 5.5<br/>squared_error = 47.289<br/>samples = 14<br/>value = 62.273>, fillcolor="#fbeade"] ;
80 -> 81 ;
82 [label=<squared_error = 0.0<br/>samples = 8<br/>value = 58.0>, fillcolor="#fbece1"] ;
81 -> 82 ;
83 [label=<squared_error = 42.188<br/>samples = 6<br/>value = 69.75>, fillcolor="#fae6d7"] ;
81 -> 83 ;
84 [label=<departure_weekday &le; 5.5<br/>squared_error = 24.889<br/>samples = 14<br/>value = 48.667>, fillcolor="#fcf1e9"] ;
80 -> 84 ;
85 [label=<squared_error = 0.0<br/>samples = 4<br/>value = 58.0>, fillcolor="#fbece1"] ;
84 -> 85 ;
86 [label=<squared_error = 0.0<br/>samples = 10<br/>value = 46.0>, fillcolor="#fcf2eb"] ;
84 -> 86 ;
87 [label=<price &le; 116.5<br/>squared_error = 139.771<br/>samples = 56<br/>value = 74.228>, fillcolor="#f9e3d3"] ;
79 -> 87 ;
88 [label=<daysAgo &le; 41.5<br/>squared_error = 75.729<br/>samples = 22<br/>value = 78.267>, fillcolor="#f9e1d0"] ;
87 -> 88 ;
89 [label=<squared_error = 132.25<br/>samples = 4<br/>value = 69.5>, fillcolor="#fae6d7"] ;
88 -> 89 ;
90 [label=<squared_error = 53.391<br/>samples = 18<br/>value = 79.615>, fillcolor="#f9e0cf"] ;
88 -> 90 ;
91 [label=<daysAgo &le; 62.5<br/>squared_error = 162.879<br/>samples = 34<br/>value = 71.755>, fillcolor="#fae5d6"] ;
87 -> 91 ;
92 [label=<squared_error = 119.012<br/>samples = 29<br/>value = 73.366>, fillcolor="#f9e4d4"] ;
91 -> 92 ;
93 [label=<squared_error = 306.25<br/>samples = 5<br/>value = 63.5>, fillcolor="#fae9dc"] ;
91 -> 93 ;
94 [label=<arrival_airport &le; 3.5<br/>squared_error = 376.869<br/>samples = 1283<br/>value = 59.551>, fillcolor="#fbebe0"] ;
62 -> 94 ;
95 [label=<price &le; 58.5<br/>squared_error = 363.842<br/>samples = 974<br/>value = 62.337>, fillcolor="#fbeadd"] ;
94 -> 95 ;
96 [label=<daysAgo &le; 61.5<br/>squared_error = 106.655<br/>samples = 246<br/>value = 56.548>, fillcolor="#fbede2"] ;
95 -> 96 ;
97 [label=<departure_weekday &le; 4.5<br/>squared_error = 56.93<br/>samples = 184<br/>value = 54.301>, fillcolor="#fbeee4"] ;
96 -> 97 ;
98 [label=<squared_error = 50.266<br/>samples = 144<br/>value = 55.93>, fillcolor="#fbede3"] ;
97 -> 98 ;
99 [label=<squared_error = 33.576<br/>samples = 40<br/>value = 48.083>, fillcolor="#fcf1e9"] ;
97 -> 99 ;
100 [label=<departure_weekday &le; 0.5<br/>squared_error = 196.269<br/>samples = 62<br/>value = 63.457>, fillcolor="#fae9dd"] ;
96 -> 100 ;
101 [label=<squared_error = 78.96<br/>samples = 12<br/>value = 55.2>, fillcolor="#fbede3"] ;
100 -> 101 ;
102 [label=<squared_error = 204.566<br/>samples = 50<br/>value = 65.689>, fillcolor="#fae8db"] ;
100 -> 102 ;
103 [label=<departure_airport &le; 1.0<br/>squared_error = 435.031<br/>samples = 728<br/>value = 64.276>, fillcolor="#fae9dc"] ;
95 -> 103 ;
104 [label=<price &le; 225.5<br/>squared_error = 487.92<br/>samples = 593<br/>value = 61.759>, fillcolor="#fbeade"] ;
103 -> 104 ;
105 [label=<squared_error = 483.206<br/>samples = 582<br/>value = 61.236>, fillcolor="#fbeade"] ;
104 -> 105 ;
106 [label=<squared_error = 133.81<br/>samples = 11<br/>value = 85.3>, fillcolor="#f8ddca"] ;
104 -> 106 ;
107 [label=<daysAgo &le; 35.5<br/>squared_error = 80.237<br/>samples = 135<br/>value = 74.721>, fillcolor="#f9e3d3"] ;
103 -> 107 ;
108 [label=<squared_error = 178.848<br/>samples = 11<br/>value = 55.095>, fillcolor="#fbeee4"] ;
107 -> 108 ;
109 [label=<squared_error = 25.49<br/>samples = 124<br/>value = 76.771>, fillcolor="#f9e2d1"] ;
107 -> 109 ;
110 [label=<daysAgo &le; 58.5<br/>squared_error = 317.458<br/>samples = 309<br/>value = 50.84>, fillcolor="#fcf0e7"] ;
94 -> 110 ;
111 [label=<daysAgo &le; 40.5<br/>squared_error = 168.923<br/>samples = 212<br/>value = 46.266>, fillcolor="#fcf2eb"] ;
110 -> 111 ;
112 [label=<price &le; 66.5<br/>squared_error = 14.194<br/>samples = 64<br/>value = 38.772>, fillcolor="#fdf6f1"] ;
111 -> 112 ;
113 [label=<squared_error = 11.918<br/>samples = 60<br/>value = 38.37>, fillcolor="#fdf6f2"] ;
112 -> 113 ;
114 [label=<squared_error = 0.0<br/>samples = 4<br/>value = 46.0>, fillcolor="#fcf2eb"] ;
112 -> 114 ;
115 [label=<price &le; 51.5<br/>squared_error = 204.538<br/>samples = 148<br/>value = 50.08>, fillcolor="#fcf0e8"] ;
111 -> 115 ;
116 [label=<squared_error = 242.523<br/>samples = 96<br/>value = 55.593>, fillcolor="#fbede3"] ;
115 -> 116 ;
117 [label=<squared_error = 30.921<br/>samples = 52<br/>value = 41.719>, fillcolor="#fdf5ef"] ;
115 -> 117 ;
118 [label=<price &le; 60.5<br/>squared_error = 498.792<br/>samples = 97<br/>value = 61.147>, fillcolor="#fbeade"] ;
110 -> 118 ;
119 [label=<price &le; 43.0<br/>squared_error = 430.41<br/>samples = 61<br/>value = 72.167>, fillcolor="#fae4d5"] ;
118 -> 119 ;
120 [label=<squared_error = 198.06<br/>samples = 14<br/>value = 84.409>, fillcolor="#f8decb"] ;
119 -> 120 ;
121 [label=<squared_error = 441.682<br/>samples = 47<br/>value = 68.527>, fillcolor="#fae6d8"] ;
119 -> 121 ;
122 [label=<price &le; 124.5<br/>squared_error = 20.654<br/>samples = 36<br/>value = 41.556>, fillcolor="#fdf5ef"] ;
118 -> 122 ;
123 [label=<squared_error = 19.299<br/>samples = 29<br/>value = 40.286>, fillcolor="#fdf5f0"] ;
122 -> 123 ;
124 [label=<squared_error = 0.0<br/>samples = 7<br/>value = 46.0>, fillcolor="#fcf2eb"] ;
122 -> 124 ;
125 [label=<departure_airport &le; 2.5<br/>squared_error = 370.023<br/>samples = 925<br/>value = 73.311>, fillcolor="#f9e4d4"] ;
3 -> 125 ;
126 [label=<departure_weekday &le; 1.5<br/>squared_error = 298.955<br/>samples = 706<br/>value = 68.503>, fillcolor="#fae6d8"] ;
125 -> 126 ;
127 [label=<departure_airport &le; 1.5<br/>squared_error = 326.448<br/>samples = 220<br/>value = 74.623>, fillcolor="#f9e3d3"] ;
126 -> 127 ;
128 [label=<price &le; 54.0<br/>squared_error = 226.774<br/>samples = 152<br/>value = 67.265>, fillcolor="#fae7d9"] ;
127 -> 128 ;
129 [label=<daysAgo &le; 45.5<br/>squared_error = 282.549<br/>samples = 71<br/>value = 75.052>, fillcolor="#f9e3d3"] ;
128 -> 129 ;
130 [label=<squared_error = 0.0<br/>samples = 7<br/>value = 46.0>, fillcolor="#fcf2eb"] ;
129 -> 130 ;
131 [label=<price &le; 42.5<br/>squared_error = 198.241<br/>samples = 64<br/>value = 78.718>, fillcolor="#f9e1d0"] ;
129 -> 131 ;
132 [label=<squared_error = 81.107<br/>samples = 38<br/>value = 82.031>, fillcolor="#f8dfcd"] ;
131 -> 132 ;
133 [label=<squared_error = 347.734<br/>samples = 26<br/>value = 73.053>, fillcolor="#f9e4d4"] ;
131 -> 133 ;
134 [label=<daysAgo &le; 66.5<br/>squared_error = 61.267<br/>samples = 81<br/>value = 59.861>, fillcolor="#fbebe0"] ;
128 -> 134 ;
135 [label=<arrival_airport &le; 2.0<br/>squared_error = 15.488<br/>samples = 75<br/>value = 58.627>, fillcolor="#fbece1"] ;
134 -> 135 ;
136 [label=<squared_error = 9.678<br/>samples = 34<br/>value = 61.518>, fillcolor="#fbeade"] ;
135 -> 136 ;
137 [label=<squared_error = 3.863<br/>samples = 41<br/>value = 55.63>, fillcolor="#fbede3"] ;
135 -> 137 ;
138 [label=<price &le; 109.0<br/>squared_error = 339.139<br/>samples = 6<br/>value = 71.167>, fillcolor="#fae5d6"] ;
134 -> 138 ;
139 [label=<squared_error = 82.562<br/>samples = 5<br/>value = 66.273>, fillcolor="#fae8da"] ;
138 -> 139 ;
140 [label=<squared_error = 0.0<br/>samples = 1<br/>value = 125.0>, fillcolor="#f4c8a9"] ;
138 -> 140 ;
141 [label=<price &le; 74.5<br/>squared_error = 122.963<br/>samples = 68<br/>value = 92.313>, fillcolor="#f7dac4"] ;
127 -> 141 ;
142 [label=<departure_weekday &le; 0.5<br/>squared_error = 81.415<br/>samples = 16<br/>value = 83.208>, fillcolor="#f8dfcc"] ;
141 -> 142 ;
143 [label=<price &le; 57.5<br/>squared_error = 24.694<br/>samples = 6<br/>value = 70.143>, fillcolor="#fae5d7"] ;
142 -> 143 ;
144 [label=<squared_error = 0.0<br/>samples = 5<br/>value = 67.0>, fillcolor="#fae7da"] ;
143 -> 144 ;
145 [label=<squared_error = 0.0<br/>samples = 1<br/>value = 78.0>, fillcolor="#f9e1d0"] ;
143 -> 145 ;
146 [label=<daysAgo &le; 67.0<br/>squared_error = 5.536<br/>samples = 10<br/>value = 88.588>, fillcolor="#f8dcc7"] ;
142 -> 146 ;
147 [label=<squared_error = 0.0<br/>samples = 9<br/>value = 88.0>, fillcolor="#f8dcc8"] ;
146 -> 147 ;
148 [label=<squared_error = 0.0<br/>samples = 1<br/>value = 98.0>, fillcolor="#f7d7c0"] ;
146 -> 148 ;
149 [label=<daysAgo &le; 49.5<br/>squared_error = 101.242<br/>samples = 52<br/>value = 95.227>, fillcolor="#f7d8c2"] ;
141 -> 149 ;
150 [label=<departure_weekday &le; 0.5<br/>squared_error = 44.686<br/>samples = 20<br/>value = 88.407>, fillcolor="#f8dcc8"] ;
149 -> 150 ;
151 [label=<squared_error = 14.972<br/>samples = 9<br/>value = 93.167>, fillcolor="#f7d9c4"] ;
150 -> 151 ;
152 [label=<squared_error = 35.84<br/>samples = 11<br/>value = 84.6>, fillcolor="#f8decb"] ;
150 -> 152 ;
153 [label=<price &le; 125.5<br/>squared_error = 92.184<br/>samples = 32<br/>value = 99.062>, fillcolor="#f7d6bf"] ;
149 -> 153 ;
154 [label=<squared_error = 102.163<br/>samples = 23<br/>value = 96.206>, fillcolor="#f7d8c1"] ;
153 -> 154 ;
155 [label=<squared_error = 0.0<br/>samples = 9<br/>value = 106.0>, fillcolor="#f6d2b9"] ;
153 -> 155 ;
156 [label=<arrival_airport &le; 2.5<br/>squared_error = 262.21<br/>samples = 486<br/>value = 65.753>, fillcolor="#fae8db"] ;
126 -> 156 ;
157 [label=<daysAgo &le; 48.5<br/>squared_error = 282.317<br/>samples = 244<br/>value = 61.264>, fillcolor="#fbeade"] ;
156 -> 157 ;
158 [label=<departure_weekday &le; 4.5<br/>squared_error = 201.546<br/>samples = 49<br/>value = 51.541>, fillcolor="#fcefe7"] ;
157 -> 158 ;
159 [label=<departure_airport &le; 1.0<br/>squared_error = 13.641<br/>samples = 16<br/>value = 65.522>, fillcolor="#fae8db"] ;
158 -> 159 ;
160 [label=<squared_error = 7.0<br/>samples = 5<br/>value = 62.0>, fillcolor="#fbeade"] ;
159 -> 160 ;
161 [label=<squared_error = 7.04<br/>samples = 11<br/>value = 67.4>, fillcolor="#fae7d9"] ;
159 -> 161 ;
162 [label=<price &le; 112.5<br/>squared_error = 158.376<br/>samples = 33<br/>value = 45.235>, fillcolor="#fcf3ec"] ;
158 -> 162 ;
163 [label=<squared_error = 149.241<br/>samples = 28<br/>value = 42.595>, fillcolor="#fdf4ee"] ;
162 -> 163 ;
164 [label=<squared_error = 16.691<br/>samples = 5<br/>value = 57.556>, fillcolor="#fbece1"] ;
162 -> 164 ;
165 [label=<price &le; 136.0<br/>squared_error = 273.907<br/>samples = 195<br/>value = 63.541>, fillcolor="#fae9dc"] ;
157 -> 165 ;
166 [label=<price &le; 131.0<br/>squared_error = 279.302<br/>samples = 175<br/>value = 65.171>, fillcolor="#fae8db"] ;
165 -> 166 ;
167 [label=<squared_error = 233.479<br/>samples = 172<br/>value = 64.322>, fillcolor="#fae9dc"] ;
166 -> 167 ;
168 [label=<squared_error = 576.0<br/>samples = 3<br/>value = 112.0>, fillcolor="#f5cfb4"] ;
166 -> 168 ;
169 [label=<departure_weekday &le; 5.5<br/>squared_error = 38.077<br/>samples = 20<br/>value = 50.457>, fillcolor="#fcf0e7"] ;
165 -> 169 ;
170 [label=<squared_error = 0.0<br/>samples = 8<br/>value = 59.0>, fillcolor="#fbebe0"] ;
169 -> 170 ;
171 [label=<squared_error = 0.0<br/>samples = 12<br/>value = 46.0>, fillcolor="#fcf2eb"] ;
169 -> 171 ;
172 [label=<arrival_airport &le; 3.5<br/>squared_error = 194.942<br/>samples = 242<br/>value = 70.617>, fillcolor="#fae5d7"] ;
156 -> 172 ;
173 [label=<price &le; 133.0<br/>squared_error = 51.882<br/>samples = 141<br/>value = 75.447>, fillcolor="#f9e3d2"] ;
172 -> 173 ;
174 [label=<departure_weekday &le; 4.5<br/>squared_error = 54.936<br/>samples = 119<br/>value = 74.285>, fillcolor="#f9e3d3"] ;
173 -> 174 ;
175 [label=<squared_error = 50.073<br/>samples = 79<br/>value = 76.302>, fillcolor="#f9e2d2"] ;
174 -> 175 ;
176 [label=<squared_error = 39.131<br/>samples = 40<br/>value = 70.107>, fillcolor="#fae6d7"] ;
174 -> 176 ;
177 [label=<squared_error = 0.0<br/>samples = 22<br/>value = 81.0>, fillcolor="#f9e0ce"] ;
173 -> 177 ;
178 [label=<daysAgo &le; 48.5<br/>squared_error = 315.085<br/>samples = 101<br/>value = 64.007>, fillcolor="#fae9dc"] ;
172 -> 178 ;
179 [label=<price &le; 44.0<br/>squared_error = 0.458<br/>samples = 24<br/>value = 47.794>, fillcolor="#fcf1ea"] ;
178 -> 179 ;
180 [label=<squared_error = 0.0<br/>samples = 8<br/>value = 47.0>, fillcolor="#fcf2ea"] ;
179 -> 180 ;
181 [label=<squared_error = 0.176<br/>samples = 16<br/>value = 48.227>, fillcolor="#fcf1e9"] ;
179 -> 181 ;
182 [label=<price &le; 43.5<br/>squared_error = 308.184<br/>samples = 77<br/>value = 68.678>, fillcolor="#fae6d8"] ;
178 -> 182 ;
183 [label=<squared_error = 3.413<br/>samples = 20<br/>value = 85.656>, fillcolor="#f8ddca"] ;
182 -> 183 ;
184 [label=<squared_error = 274.417<br/>samples = 57<br/>value = 62.36>, fillcolor="#fbeadd"] ;
182 -> 184 ;
185 [label=<departure_weekday &le; 5.5<br/>squared_error = 291.68<br/>samples = 219<br/>value = 88.458>, fillcolor="#f8dcc8"] ;
125 -> 185 ;
186 [label=<departure_weekday &le; 4.5<br/>squared_error = 74.084<br/>samples = 192<br/>value = 92.666>, fillcolor="#f7d9c4"] ;
185 -> 186 ;
187 [label=<price &le; 99.5<br/>squared_error = 47.013<br/>samples = 163<br/>value = 94.537>, fillcolor="#f7d8c2"] ;
186 -> 187 ;
188 [label=<departure_weekday &le; 1.5<br/>squared_error = 48.539<br/>samples = 35<br/>value = 100.833>, fillcolor="#f6d5bd"] ;
187 -> 188 ;
189 [label=<departure_weekday &le; 0.5<br/>squared_error = 48.05<br/>samples = 12<br/>value = 108.053>, fillcolor="#f6d1b7"] ;
188 -> 189 ;
190 [label=<squared_error = 5.0<br/>samples = 5<br/>value = 101.0>, fillcolor="#f6d5bd"] ;
189 -> 190 ;
191 [label=<squared_error = 34.367<br/>samples = 7<br/>value = 111.308>, fillcolor="#f5cfb4"] ;
189 -> 191 ;
192 [label=<daysAgo &le; 67.0<br/>squared_error = 13.421<br/>samples = 23<br/>value = 97.488>, fillcolor="#f7d7c0"] ;
188 -> 192 ;
193 [label=<squared_error = 8.378<br/>samples = 22<br/>value = 97.85>, fillcolor="#f7d7c0"] ;
192 -> 193 ;
194 [label=<squared_error = 0.0<br/>samples = 1<br/>value = 83.0>, fillcolor="#f8dfcc"] ;
192 -> 194 ;
195 [label=<departure_weekday &le; 3.5<br/>squared_error = 30.995<br/>samples = 128<br/>value = 92.638>, fillcolor="#f7d9c4"] ;
187 -> 195 ;
196 [label=<departure_weekday &le; 1.5<br/>squared_error = 28.422<br/>samples = 100<br/>value = 91.078>, fillcolor="#f7dac5"] ;
195 -> 196 ;
197 [label=<squared_error = 18.462<br/>samples = 69<br/>value = 93.41>, fillcolor="#f7d9c3"] ;
196 -> 197 ;
198 [label=<squared_error = 18.146<br/>samples = 31<br/>value = 86.759>, fillcolor="#f8ddc9"] ;
196 -> 198 ;
199 [label=<price &le; 100.5<br/>squared_error = 2.955<br/>samples = 28<br/>value = 97.978>, fillcolor="#f7d7c0"] ;
195 -> 199 ;
200 [label=<squared_error = 0.0<br/>samples = 5<br/>value = 101.0>, fillcolor="#f6d5bd"] ;
199 -> 200 ;
201 [label=<squared_error = 1.192<br/>samples = 23<br/>value = 97.324>, fillcolor="#f7d7c0"] ;
199 -> 201 ;
202 [label=<price &le; 120.5<br/>squared_error = 89.03<br/>samples = 29<br/>value = 81.395>, fillcolor="#f8dfcd"] ;
186 -> 202 ;
203 [label=<price &le; 104.5<br/>squared_error = 75.27<br/>samples = 17<br/>value = 86.37>, fillcolor="#f8ddc9"] ;
202 -> 203 ;
204 [label=<price &le; 98.5<br/>squared_error = 80.222<br/>samples = 9<br/>value = 79.333>, fillcolor="#f9e1cf"] ;
203 -> 204 ;
205 [label=<squared_error = 0.0<br/>samples = 2<br/>value = 92.0>, fillcolor="#f7dac5"] ;
204 -> 205 ;
206 [label=<squared_error = 57.76<br/>samples = 7<br/>value = 76.8>, fillcolor="#f9e2d1"] ;
204 -> 206 ;
207 [label=<squared_error = 0.0<br/>samples = 8<br/>value = 92.0>, fillcolor="#f7dac5"] ;
203 -> 207 ;
208 [label=<squared_error = 0.0<br/>samples = 12<br/>value = 73.0>, fillcolor="#f9e4d5"] ;
202 -> 208 ;
209 [label=<daysAgo &le; 51.5<br/>squared_error = 822.317<br/>samples = 27<br/>value = 58.907>, fillcolor="#fbebe0"] ;
185 -> 209 ;
210 [label=<squared_error = 0.0<br/>samples = 9<br/>value = 39.0>, fillcolor="#fdf6f1"] ;
209 -> 210 ;
211 [label=<price &le; 107.5<br/>squared_error = 935.616<br/>samples = 18<br/>value = 70.704>, fillcolor="#fae5d6"] ;
209 -> 211 ;
212 [label=<daysAgo &le; 66.5<br/>squared_error = 798.062<br/>samples = 11<br/>value = 57.235>, fillcolor="#fbece2"] ;
211 -> 212 ;
213 [label=<price &le; 100.5<br/>squared_error = 470.694<br/>samples = 9<br/>value = 47.857>, fillcolor="#fcf1ea"] ;
212 -> 213 ;
214 [label=<squared_error = 720.75<br/>samples = 6<br/>value = 54.5>, fillcolor="#fbeee4"] ;
213 -> 214 ;
215 [label=<squared_error = 0.0<br/>samples = 3<br/>value = 39.0>, fillcolor="#fdf6f1"] ;
213 -> 215 ;
216 [label=<squared_error = 0.0<br/>samples = 2<br/>value = 101.0>, fillcolor="#f6d5bd"] ;
212 -> 216 ;
217 [label=<price &le; 115.0<br/>squared_error = 336.84<br/>samples = 7<br/>value = 93.6>, fillcolor="#f7d9c3"] ;
211 -> 217 ;
218 [label=<daysAgo &le; 61.5<br/>squared_error = 6.75<br/>samples = 5<br/>value = 99.5>, fillcolor="#f6d6be"] ;
217 -> 218 ;
219 [label=<squared_error = 0.0<br/>samples = 4<br/>value = 101.0>, fillcolor="#f6d5bd"] ;
218 -> 219 ;
220 [label=<squared_error = 0.0<br/>samples = 1<br/>value = 95.0>, fillcolor="#f7d8c2"] ;
218 -> 220 ;
221 [label=<daysAgo &le; 53.0<br/>squared_error = 961.0<br/>samples = 2<br/>value = 70.0>, fillcolor="#fae6d7"] ;
217 -> 221 ;
222 [label=<squared_error = 0.0<br/>samples = 1<br/>value = 101.0>, fillcolor="#f6d5bd"] ;
221 -> 222 ;
223 [label=<squared_error = 0.0<br/>samples = 1<br/>value = 39.0>, fillcolor="#fdf6f1"] ;
221 -> 223 ;
224 [label=<airport_distance_km &le; 2139.685<br/>squared_error = 642.108<br/>samples = 2740<br/>value = 76.865>, fillcolor="#f9e2d1"] ;
2 -> 224 ;
225 [label=<near_holiday_-1.0 &le; 0.5<br/>squared_error = 653.817<br/>samples = 2166<br/>value = 74.137>, fillcolor="#f9e3d4"] ;
224 -> 225 ;
226 [label=<daysAgo &le; 74.5<br/>squared_error = 682.619<br/>samples = 1356<br/>value = 78.233>, fillcolor="#f9e1d0"] ;
225 -> 226 ;
227 [label=<near_holiday_1.0 &le; 0.5<br/>squared_error = 591.735<br/>samples = 453<br/>value = 67.515>, fillcolor="#fae7d9"] ;
226 -> 227 ;
228 [label=<near_holiday_0.0 &le; 0.5<br/>squared_error = 523.507<br/>samples = 208<br/>value = 55.867>, fillcolor="#fbede3"] ;
227 -> 228 ;
229 [label=<price &le; 90.5<br/>squared_error = 473.804<br/>samples = 178<br/>value = 52.199>, fillcolor="#fcefe6"] ;
228 -> 229 ;
230 [label=<departure_weekday &le; 1.5<br/>squared_error = 441.714<br/>samples = 102<br/>value = 58.697>, fillcolor="#fbece1"] ;
229 -> 230 ;
231 [label=<squared_error = 138.496<br/>samples = 23<br/>value = 43.062>, fillcolor="#fdf4ee"] ;
230 -> 231 ;
232 [label=<squared_error = 441.707<br/>samples = 79<br/>value = 62.459>, fillcolor="#fbeadd"] ;
230 -> 232 ;
233 [label=<price &le; 129.0<br/>squared_error = 373.972<br/>samples = 76<br/>value = 42.957>, fillcolor="#fdf4ee"] ;
229 -> 233 ;
234 [label=<squared_error = 195.389<br/>samples = 63<br/>value = 39.473>, fillcolor="#fdf6f1"] ;
233 -> 234 ;
235 [label=<squared_error = 848.563<br/>samples = 13<br/>value = 57.043>, fillcolor="#fbece2"] ;
233 -> 235 ;
236 [label=<departure_weekday &le; 0.5<br/>squared_error = 314.739<br/>samples = 30<br/>value = 76.078>, fillcolor="#f9e2d2"] ;
228 -> 236 ;
237 [label=<squared_error = 0.0<br/>samples = 4<br/>value = 45.0>, fillcolor="#fdf3ec"] ;
236 -> 237 ;
238 [label=<departure_weekday &le; 4.5<br/>squared_error = 232.552<br/>samples = 26<br/>value = 79.457>, fillcolor="#f9e1cf"] ;
236 -> 238 ;
239 [label=<squared_error = 185.79<br/>samples = 15<br/>value = 72.292>, fillcolor="#f9e4d5"] ;
238 -> 239 ;
240 [label=<squared_error = 166.471<br/>samples = 11<br/>value = 87.273>, fillcolor="#f8dcc9"] ;
238 -> 240 ;
241 [label=<price &le; 130.0<br/>squared_error = 434.054<br/>samples = 245<br/>value = 77.506>, fillcolor="#f9e2d1"] ;
227 -> 241 ;
242 [label=<price &le; 56.5<br/>squared_error = 279.279<br/>samples = 210<br/>value = 74.416>, fillcolor="#f9e3d3"] ;
241 -> 242 ;
243 [label=<airport_distance_km &le; 993.364<br/>squared_error = 149.776<br/>samples = 105<br/>value = 80.441>, fillcolor="#f9e0ce"] ;
242 -> 243 ;
244 [label=<squared_error = 194.569<br/>samples = 46<br/>value = 85.271>, fillcolor="#f8ddca"] ;
243 -> 244 ;
245 [label=<squared_error = 90.656<br/>samples = 59<br/>value = 77.06>, fillcolor="#f9e2d1"] ;
243 -> 245 ;
246 [label=<airport_distance_km &le; 993.364<br/>squared_error = 336.885<br/>samples = 105<br/>value = 68.171>, fillcolor="#fae7d9"] ;
242 -> 246 ;
247 [label=<squared_error = 1.129<br/>samples = 8<br/>value = 47.933>, fillcolor="#fcf1ea"] ;
246 -> 247 ;
248 [label=<squared_error = 325.306<br/>samples = 97<br/>value = 70.208>, fillcolor="#fae5d7"] ;
246 -> 248 ;
249 [label=<airport_distance_km &le; 1862.879<br/>squared_error = 969.981<br/>samples = 35<br/>value = 96.981>, fillcolor="#f7d7c0"] ;
241 -> 249 ;
250 [label=<departure_weekday &le; 5.5<br/>squared_error = 272.794<br/>samples = 13<br/>value = 62.667>, fillcolor="#fbe9dd"] ;
249 -> 250 ;
251 [label=<squared_error = 200.857<br/>samples = 9<br/>value = 71.0>, fillcolor="#fae5d6"] ;
250 -> 251 ;
252 [label=<squared_error = 0.0<br/>samples = 4<br/>value = 46.0>, fillcolor="#fcf2eb"] ;
250 -> 252 ;
253 [label=<price &le; 174.5<br/>squared_error = 147.688<br/>samples = 22<br/>value = 119.5>, fillcolor="#f4cbad"] ;
249 -> 253 ;
254 [label=<squared_error = 135.037<br/>samples = 20<br/>value = 122.0>, fillcolor="#f4caab"] ;
253 -> 254 ;
255 [label=<squared_error = 0.0<br/>samples = 2<br/>value = 106.0>, fillcolor="#f6d2b9"] ;
253 -> 255 ;
256 [label=<price &le; 143.0<br/>squared_error = 642.143<br/>samples = 903<br/>value = 83.573>, fillcolor="#f8decc"] ;
226 -> 256 ;
257 [label=<daysAgo &le; 80.5<br/>squared_error = 568.187<br/>samples = 832<br/>value = 81.504>, fillcolor="#f8dfcd"] ;
256 -> 257 ;
258 [label=<price &le; 51.5<br/>squared_error = 533.467<br/>samples = 398<br/>value = 77.484>, fillcolor="#f9e2d1"] ;
257 -> 258 ;
259 [label=<arrival_airport &le; 3.5<br/>squared_error = 269.781<br/>samples = 142<br/>value = 84.274>, fillcolor="#f8decb"] ;
258 -> 259 ;
260 [label=<squared_error = 183.069<br/>samples = 82<br/>value = 76.185>, fillcolor="#f9e2d2"] ;
259 -> 260 ;
261 [label=<squared_error = 167.904<br/>samples = 60<br/>value = 95.768>, fillcolor="#f7d8c1"] ;
259 -> 261 ;
262 [label=<price &le; 127.5<br/>squared_error = 642.399<br/>samples = 256<br/>value = 73.619>, fillcolor="#f9e4d4"] ;
258 -> 262 ;
263 [label=<squared_error = 484.362<br/>samples = 213<br/>value = 70.979>, fillcolor="#fae5d6"] ;
262 -> 263 ;
264 [label=<squared_error = 1240.791<br/>samples = 43<br/>value = 87.385>, fillcolor="#f8dcc8"] ;
262 -> 264 ;
265 [label=<near_holiday_1.0 &le; 0.5<br/>squared_error = 571.67<br/>samples = 434<br/>value = 85.171>, fillcolor="#f8ddca"] ;
257 -> 265 ;
266 [label=<near_holiday_0.0 &le; 0.5<br/>squared_error = 588.014<br/>samples = 192<br/>value = 93.889>, fillcolor="#f7d9c3"] ;
265 -> 266 ;
267 [label=<squared_error = 560.36<br/>samples = 162<br/>value = 97.419>, fillcolor="#f7d7c0"] ;
266 -> 267 ;
268 [label=<squared_error = 322.702<br/>samples = 30<br/>value = 75.306>, fillcolor="#f9e3d3"] ;
266 -> 268 ;
269 [label=<price &le; 53.5<br/>squared_error = 451.018<br/>samples = 242<br/>value = 78.273>, fillcolor="#f9e1d0"] ;
265 -> 269 ;
270 [label=<squared_error = 135.54<br/>samples = 79<br/>value = 89.024>, fillcolor="#f8dbc7"] ;
269 -> 270 ;
271 [label=<squared_error = 519.408<br/>samples = 163<br/>value = 73.223>, fillcolor="#f9e4d4"] ;
269 -> 271 ;
272 [label=<departure_airport &le; 1.0<br/>squared_error = 872.651<br/>samples = 71<br/>value = 107.693>, fillcolor="#f6d1b7"] ;
256 -> 272 ;
273 [label=<near_holiday_0.0 &le; 0.5<br/>squared_error = 505.27<br/>samples = 53<br/>value = 119.337>, fillcolor="#f4cbae"] ;
272 -> 273 ;
274 [label=<departure_weekday &le; 3.5<br/>squared_error = 419.512<br/>samples = 52<br/>value = 120.845>, fillcolor="#f4caac"] ;
273 -> 274 ;
275 [label=<squared_error = 659.636<br/>samples = 22<br/>value = 111.097>, fillcolor="#f5d0b5"] ;
274 -> 275 ;
276 [label=<squared_error = 190.965<br/>samples = 30<br/>value = 126.547>, fillcolor="#f4c7a8"] ;
274 -> 276 ;
277 [label=<squared_error = 0.0<br/>samples = 1<br/>value = 56.0>, fillcolor="#fbede3"] ;
273 -> 277 ;
278 [label=<price &le; 166.0<br/>squared_error = 305.495<br/>samples = 18<br/>value = 71.929>, fillcolor="#fae5d5"] ;
272 -> 278 ;
279 [label=<near_holiday_1.0 &le; 0.5<br/>squared_error = 12.96<br/>samples = 7<br/>value = 95.2>, fillcolor="#f7d8c2"] ;
278 -> 279 ;
280 [label=<squared_error = 0.0<br/>samples = 6<br/>value = 94.0>, fillcolor="#f7d9c3"] ;
279 -> 280 ;
281 [label=<squared_error = 0.0<br/>samples = 1<br/>value = 106.0>, fillcolor="#f6d2b9"] ;
279 -> 281 ;
282 [label=<squared_error = 0.0<br/>samples = 11<br/>value = 59.0>, fillcolor="#fbebe0"] ;
278 -> 282 ;
283 [label=<arrival_airport &le; 2.5<br/>squared_error = 529.79<br/>samples = 810<br/>value = 67.252>, fillcolor="#fae7d9"] ;
225 -> 283 ;
284 [label=<price &le; 161.0<br/>squared_error = 607.353<br/>samples = 402<br/>value = 71.603>, fillcolor="#fae5d6"] ;
283 -> 284 ;
285 [label=<price &le; 109.5<br/>squared_error = 597.324<br/>samples = 330<br/>value = 74.57>, fillcolor="#f9e3d3"] ;
284 -> 285 ;
286 [label=<price &le; 106.5<br/>squared_error = 155.828<br/>samples = 166<br/>value = 69.331>, fillcolor="#fae6d8"] ;
285 -> 286 ;
287 [label=<price &le; 83.0<br/>squared_error = 153.771<br/>samples = 160<br/>value = 70.021>, fillcolor="#fae6d7"] ;
286 -> 287 ;
288 [label=<squared_error = 171.542<br/>samples = 131<br/>value = 68.439>, fillcolor="#fae6d8"] ;
287 -> 288 ;
289 [label=<squared_error = 17.992<br/>samples = 29<br/>value = 76.911>, fillcolor="#f9e2d1"] ;
287 -> 289 ;
290 [label=<departure_weekday &le; 3.0<br/>squared_error = 21.479<br/>samples = 6<br/>value = 56.538>, fillcolor="#fbede2"] ;
286 -> 290 ;
291 [label=<squared_error = 0.0<br/>samples = 5<br/>value = 54.0>, fillcolor="#fceee4"] ;
290 -> 291 ;
292 [label=<squared_error = 0.0<br/>samples = 1<br/>value = 65.0>, fillcolor="#fae8db"] ;
290 -> 292 ;
293 [label=<departure_weekday &le; 4.5<br/>squared_error = 952.719<br/>samples = 164<br/>value = 79.356>, fillcolor="#f9e1cf"] ;
285 -> 293 ;
294 [label=<price &le; 125.5<br/>squared_error = 1229.536<br/>samples = 110<br/>value = 84.754>, fillcolor="#f8decb"] ;
293 -> 294 ;
295 [label=<squared_error = 908.482<br/>samples = 39<br/>value = 99.441>, fillcolor="#f7d6be"] ;
294 -> 295 ;
296 [label=<squared_error = 1221.842<br/>samples = 71<br/>value = 76.634>, fillcolor="#f9e2d1"] ;
294 -> 296 ;
297 [label=<price &le; 143.5<br/>squared_error = 140.595<br/>samples = 54<br/>value = 67.506>, fillcolor="#fae7d9"] ;
293 -> 297 ;
298 [label=<squared_error = 70.25<br/>samples = 42<br/>value = 71.493>, fillcolor="#fae5d6"] ;
297 -> 298 ;
299 [label=<squared_error = 144.628<br/>samples = 12<br/>value = 54.15>, fillcolor="#fbeee4"] ;
297 -> 299 ;
300 [label=<price &le; 199.0<br/>squared_error = 411.156<br/>samples = 72<br/>value = 57.387>, fillcolor="#fbece2"] ;
284 -> 300 ;
301 [label=<departure_weekday &le; 0.5<br/>squared_error = 332.107<br/>samples = 58<br/>value = 52.273>, fillcolor="#fcefe6"] ;
300 -> 301 ;
302 [label=<squared_error = 0.0<br/>samples = 6<br/>value = 89.0>, fillcolor="#f8dbc7"] ;
301 -> 302 ;
303 [label=<price &le; 178.5<br/>squared_error = 216.94<br/>samples = 52<br/>value = 48.6>, fillcolor="#fcf1e9"] ;
301 -> 303 ;
304 [label=<squared_error = 254.974<br/>samples = 33<br/>value = 52.745>, fillcolor="#fcefe6"] ;
303 -> 304 ;
305 [label=<squared_error = 66.697<br/>samples = 19<br/>value = 41.31>, fillcolor="#fdf5ef"] ;
303 -> 305 ;
306 [label=<departure_weekday &le; 4.0<br/>squared_error = 230.563<br/>samples = 14<br/>value = 76.957>, fillcolor="#f9e2d1"] ;
300 -> 306 ;
307 [label=<squared_error = 0.0<br/>samples = 10<br/>value = 87.0>, fillcolor="#f8dcc9"] ;
306 -> 307 ;
308 [label=<squared_error = 0.0<br/>samples = 4<br/>value = 54.0>, fillcolor="#fceee4"] ;
306 -> 308 ;
309 [label=<price &le; 55.5<br/>squared_error = 414.357<br/>samples = 408<br/>value = 62.9>, fillcolor="#fbe9dd"] ;
283 -> 309 ;
310 [label=<departure_weekday &le; 4.5<br/>squared_error = 341.565<br/>samples = 128<br/>value = 76.679>, fillcolor="#f9e2d1"] ;
309 -> 310 ;
311 [label=<departure_airport &le; 0.5<br/>squared_error = 289.318<br/>samples = 98<br/>value = 81.615>, fillcolor="#f8dfcd"] ;
310 -> 311 ;
312 [label=<departure_weekday &le; 0.5<br/>squared_error = 136.546<br/>samples = 38<br/>value = 68.567>, fillcolor="#fae6d8"] ;
311 -> 312 ;
313 [label=<squared_error = 231.04<br/>samples = 15<br/>value = 61.783>, fillcolor="#fbeade"] ;
312 -> 313 ;
314 [label=<squared_error = 31.413<br/>samples = 23<br/>value = 72.784>, fillcolor="#f9e4d5"] ;
312 -> 314 ;
315 [label=<price &le; 44.5<br/>squared_error = 198.25<br/>samples = 60<br/>value = 90.511>, fillcolor="#f7dbc6"] ;
311 -> 315 ;
316 [label=<squared_error = 252.278<br/>samples = 36<br/>value = 85.388>, fillcolor="#f8ddca"] ;
315 -> 316 ;
317 [label=<squared_error = 55.946<br/>samples = 24<br/>value = 96.949>, fillcolor="#f7d7c0"] ;
315 -> 317 ;
318 [label=<departure_weekday &le; 5.5<br/>squared_error = 169.714<br/>samples = 30<br/>value = 60.444>, fillcolor="#fbebdf"] ;
310 -> 318 ;
319 [label=<price &le; 45.5<br/>squared_error = 114.469<br/>samples = 17<br/>value = 54.556>, fillcolor="#fbeee4"] ;
318 -> 319 ;
320 [label=<squared_error = 51.84<br/>samples = 8<br/>value = 65.4>, fillcolor="#fae8db"] ;
319 -> 320 ;
321 [label=<squared_error = 41.439<br/>samples = 9<br/>value = 48.176>, fillcolor="#fcf1e9"] ;
319 -> 321 ;
322 [label=<daysAgo &le; 79.5<br/>squared_error = 122.534<br/>samples = 13<br/>value = 69.278>, fillcolor="#fae6d8"] ;
318 -> 322 ;
323 [label=<squared_error = 30.25<br/>samples = 10<br/>value = 66.5>, fillcolor="#fae7da"] ;
322 -> 323 ;
324 [label=<squared_error = 324.0<br/>samples = 3<br/>value = 79.0>, fillcolor="#f9e1cf"] ;
322 -> 324 ;
325 [label=<airport_distance_km &le; 993.364<br/>squared_error = 329.235<br/>samples = 280<br/>value = 56.991>, fillcolor="#fbede2"] ;
309 -> 325 ;
326 [label=<daysAgo &le; 82.5<br/>squared_error = 202.555<br/>samples = 130<br/>value = 47.952>, fillcolor="#fcf1ea"] ;
325 -> 326 ;
327 [label=<price &le; 83.5<br/>squared_error = 146.032<br/>samples = 95<br/>value = 44.719>, fillcolor="#fdf3ec"] ;
326 -> 327 ;
328 [label=<squared_error = 268.889<br/>samples = 42<br/>value = 49.185>, fillcolor="#fcf1e9"] ;
327 -> 328 ;
329 [label=<squared_error = 29.675<br/>samples = 53<br/>value = 41.42>, fillcolor="#fdf5ef"] ;
327 -> 329 ;
330 [label=<price &le; 90.5<br/>squared_error = 249.833<br/>samples = 35<br/>value = 56.945>, fillcolor="#fbede2"] ;
326 -> 330 ;
331 [label=<squared_error = 255.558<br/>samples = 17<br/>value = 61.815>, fillcolor="#fbeade"] ;
330 -> 331 ;
332 [label=<squared_error = 199.402<br/>samples = 18<br/>value = 52.25>, fillcolor="#fcefe6"] ;
330 -> 332 ;
333 [label=<price &le; 88.5<br/>squared_error = 307.529<br/>samples = 150<br/>value = 64.76>, fillcolor="#fae8db"] ;
325 -> 333 ;
334 [label=<departure_weekday &le; 5.5<br/>squared_error = 266.702<br/>samples = 95<br/>value = 58.07>, fillcolor="#fbece1"] ;
333 -> 334 ;
335 [label=<squared_error = 167.593<br/>samples = 77<br/>value = 54.031>, fillcolor="#fceee4"] ;
334 -> 335 ;
336 [label=<squared_error = 314.369<br/>samples = 18<br/>value = 75.897>, fillcolor="#f9e2d2"] ;
334 -> 336 ;
337 [label=<price &le; 120.0<br/>squared_error = 147.563<br/>samples = 55<br/>value = 77.118>, fillcolor="#f9e2d1"] ;
333 -> 337 ;
338 [label=<squared_error = 64.127<br/>samples = 36<br/>value = 80.208>, fillcolor="#f9e0ce"] ;
337 -> 338 ;
339 [label=<squared_error = 243.75<br/>samples = 19<br/>value = 72.0>, fillcolor="#fae4d5"] ;
337 -> 339 ;
340 [label=<departure_weekday &le; 4.5<br/>squared_error = 463.072<br/>samples = 574<br/>value = 87.188>, fillcolor="#f8dcc9"] ;
224 -> 340 ;
341 [label=<price &le; 91.5<br/>squared_error = 327.841<br/>samples = 394<br/>value = 91.755>, fillcolor="#f7dac5"] ;
340 -> 341 ;
342 [label=<near_holiday_1.0 &le; 0.5<br/>squared_error = 366.24<br/>samples = 151<br/>value = 83.768>, fillcolor="#f8decb"] ;
341 -> 342 ;
343 [label=<daysAgo &le; 76.5<br/>squared_error = 380.317<br/>samples = 122<br/>value = 79.778>, fillcolor="#f9e0cf"] ;
342 -> 343 ;
344 [label=<near_holiday_-1.0 &le; 0.5<br/>squared_error = 457.65<br/>samples = 62<br/>value = 73.888>, fillcolor="#f9e3d4"] ;
343 -> 344 ;
345 [label=<price &le; 84.5<br/>squared_error = 562.759<br/>samples = 30<br/>value = 61.436>, fillcolor="#fbeade"] ;
344 -> 345 ;
346 [label=<squared_error = 291.677<br/>samples = 23<br/>value = 70.3>, fillcolor="#fae5d7"] ;
345 -> 346 ;
347 [label=<squared_error = 331.432<br/>samples = 7<br/>value = 31.889>, fillcolor="#fefaf7"] ;
345 -> 347 ;
348 [label=<price &le; 78.5<br/>squared_error = 160.4<br/>samples = 32<br/>value = 83.6>, fillcolor="#f8decc"] ;
344 -> 348 ;
349 [label=<squared_error = 54.832<br/>samples = 14<br/>value = 78.458>, fillcolor="#f9e1d0"] ;
348 -> 349 ;
350 [label=<squared_error = 210.919<br/>samples = 18<br/>value = 88.346>, fillcolor="#f8dcc8"] ;
348 -> 350 ;
351 [label=<price &le; 75.5<br/>squared_error = 237.567<br/>samples = 60<br/>value = 85.538>, fillcolor="#f8ddca"] ;
343 -> 351 ;
352 [label=<near_holiday_-1.0 &le; 0.5<br/>squared_error = 21.327<br/>samples = 17<br/>value = 73.5>, fillcolor="#f9e4d4"] ;
351 -> 352 ;
353 [label=<squared_error = 5.633<br/>samples = 7<br/>value = 69.462>, fillcolor="#fae6d7"] ;
352 -> 353 ;
354 [label=<squared_error = 4.402<br/>samples = 10<br/>value = 77.538>, fillcolor="#f9e2d1"] ;
352 -> 354 ;
355 [label=<departure_weekday &le; 0.5<br/>squared_error = 242.906<br/>samples = 43<br/>value = 90.354>, fillcolor="#f8dbc6"] ;
351 -> 355 ;
356 [label=<squared_error = 37.633<br/>samples = 8<br/>value = 74.462>, fillcolor="#f9e3d3"] ;
355 -> 356 ;
357 [label=<squared_error = 215.297<br/>samples = 35<br/>value = 94.327>, fillcolor="#f7d9c3"] ;
355 -> 357 ;
358 [label=<departure_weekday &le; 2.5<br/>squared_error = 29.906<br/>samples = 29<br/>value = 98.729>, fillcolor="#f7d6bf"] ;
342 -> 358 ;
359 [label=<price &le; 83.5<br/>squared_error = 27.337<br/>samples = 17<br/>value = 101.143>, fillcolor="#f6d5bd"] ;
358 -> 359 ;
360 [label=<departure_weekday &le; 1.5<br/>squared_error = 48.0<br/>samples = 5<br/>value = 107.0>, fillcolor="#f6d2b8"] ;
359 -> 360 ;
361 [label=<squared_error = 0.0<br/>samples = 2<br/>value = 113.0>, fillcolor="#f5cfb3"] ;
360 -> 361 ;
362 [label=<squared_error = 0.0<br/>samples = 3<br/>value = 99.0>, fillcolor="#f7d6bf"] ;
360 -> 362 ;
363 [label=<daysAgo &le; 75.0<br/>squared_error = 5.202<br/>samples = 12<br/>value = 99.19>, fillcolor="#f7d6bf"] ;
359 -> 363 ;
364 [label=<squared_error = 2.0<br/>samples = 4<br/>value = 97.0>, fillcolor="#f7d7c0"] ;
363 -> 364 ;
365 [label=<squared_error = 3.796<br/>samples = 8<br/>value = 100.067>, fillcolor="#f6d6be"] ;
363 -> 365 ;
366 [label=<price &le; 88.5<br/>squared_error = 13.927<br/>samples = 12<br/>value = 95.35>, fillcolor="#f7d8c2"] ;
358 -> 366 ;
367 [label=<squared_error = 0.0<br/>samples = 8<br/>value = 93.0>, fillcolor="#f7d9c4"] ;
366 -> 367 ;
368 [label=<daysAgo &le; 76.5<br/>squared_error = 14.109<br/>samples = 4<br/>value = 98.875>, fillcolor="#f7d6bf"] ;
366 -> 368 ;
369 [label=<squared_error = 0.0<br/>samples = 1<br/>value = 93.0>, fillcolor="#f7d9c4"] ;
368 -> 369 ;
370 [label=<squared_error = 3.472<br/>samples = 3<br/>value = 100.833>, fillcolor="#f6d5bd"] ;
368 -> 370 ;
371 [label=<near_holiday_-1.0 &le; 0.5<br/>squared_error = 248.863<br/>samples = 243<br/>value = 96.308>, fillcolor="#f7d8c1"] ;
341 -> 371 ;
372 [label=<daysAgo &le; 74.5<br/>squared_error = 260.884<br/>samples = 175<br/>value = 99.854>, fillcolor="#f6d6be"] ;
371 -> 372 ;
373 [label=<near_holiday_1.0 &le; 0.5<br/>squared_error = 384.779<br/>samples = 58<br/>value = 92.138>, fillcolor="#f7dac4"] ;
372 -> 373 ;
374 [label=<price &le; 96.5<br/>squared_error = 931.602<br/>samples = 15<br/>value = 79.429>, fillcolor="#f9e1cf"] ;
373 -> 374 ;
375 [label=<squared_error = 941.806<br/>samples = 4<br/>value = 47.833>, fillcolor="#fcf1ea"] ;
374 -> 375 ;
376 [label=<squared_error = 582.316<br/>samples = 11<br/>value = 88.045>, fillcolor="#f8dcc8"] ;
374 -> 376 ;
377 [label=<price &le; 112.5<br/>squared_error = 55.188<br/>samples = 43<br/>value = 97.53>, fillcolor="#f7d7c0"] ;
373 -> 377 ;
378 [label=<squared_error = 56.395<br/>samples = 35<br/>value = 98.473>, fillcolor="#f7d6bf"] ;
377 -> 378 ;
379 [label=<squared_error = 22.512<br/>samples = 8<br/>value = 92.818>, fillcolor="#f7d9c4"] ;
377 -> 379 ;
380 [label=<near_holiday_1.0 &le; 0.5<br/>squared_error = 162.079<br/>samples = 117<br/>value = 103.463>, fillcolor="#f6d4bb"] ;
372 -> 380 ;
381 [label=<daysAgo &le; 80.5<br/>squared_error = 153.005<br/>samples = 41<br/>value = 116.682>, fillcolor="#f5cdb0"] ;
380 -> 381 ;
382 [label=<squared_error = 113.796<br/>samples = 21<br/>value = 110.219>, fillcolor="#f5d0b5"] ;
381 -> 382 ;
383 [label=<squared_error = 113.592<br/>samples = 20<br/>value = 122.765>, fillcolor="#f4c9ab"] ;
381 -> 383 ;
384 [label=<price &le; 110.0<br/>squared_error = 39.319<br/>samples = 76<br/>value = 97.0>, fillcolor="#f7d7c0"] ;
380 -> 384 ;
385 [label=<squared_error = 39.654<br/>samples = 53<br/>value = 98.957>, fillcolor="#f7d6bf"] ;
384 -> 385 ;
386 [label=<squared_error = 11.317<br/>samples = 23<br/>value = 92.667>, fillcolor="#f7d9c4"] ;
384 -> 386 ;
387 [label=<departure_weekday &le; 0.5<br/>squared_error = 80.454<br/>samples = 68<br/>value = 86.343>, fillcolor="#f8ddc9"] ;
371 -> 387 ;
388 [label=<price &le; 102.5<br/>squared_error = 74.326<br/>samples = 14<br/>value = 76.917>, fillcolor="#f9e2d1"] ;
387 -> 388 ;
389 [label=<daysAgo &le; 81.0<br/>squared_error = 27.929<br/>samples = 7<br/>value = 70.615>, fillcolor="#fae5d7"] ;
388 -> 389 ;
390 [label=<squared_error = 8.889<br/>samples = 6<br/>value = 69.333>, fillcolor="#fae6d8"] ;
389 -> 390 ;
391 [label=<squared_error = 0.0<br/>samples = 1<br/>value = 86.0>, fillcolor="#f8ddca"] ;
389 -> 391 ;
392 [label=<daysAgo &le; 69.5<br/>squared_error = 26.777<br/>samples = 7<br/>value = 84.364>, fillcolor="#f8decb"] ;
388 -> 392 ;
393 [label=<squared_error = 81.0<br/>samples = 2<br/>value = 77.0>, fillcolor="#f9e2d1"] ;
392 -> 393 ;
394 [label=<squared_error = 0.0<br/>samples = 5<br/>value = 86.0>, fillcolor="#f8ddca"] ;
392 -> 394 ;
395 [label=<price &le; 103.5<br/>squared_error = 48.142<br/>samples = 54<br/>value = 89.136>, fillcolor="#f8dbc7"] ;
387 -> 395 ;
396 [label=<price &le; 93.5<br/>squared_error = 31.41<br/>samples = 26<br/>value = 92.974>, fillcolor="#f7d9c4"] ;
395 -> 396 ;
397 [label=<squared_error = 42.996<br/>samples = 10<br/>value = 96.733>, fillcolor="#f7d7c1"] ;
396 -> 397 ;
398 [label=<squared_error = 9.818<br/>samples = 16<br/>value = 90.625>, fillcolor="#f7dbc6"] ;
396 -> 398 ;
399 [label=<departure_weekday &le; 3.5<br/>squared_error = 37.293<br/>samples = 28<br/>value = 85.571>, fillcolor="#f8ddca"] ;
395 -> 399 ;
400 [label=<squared_error = 33.01<br/>samples = 13<br/>value = 80.7>, fillcolor="#f9e0ce"] ;
399 -> 400 ;
401 [label=<squared_error = 0.0<br/>samples = 15<br/>value = 90.0>, fillcolor="#f8dbc6"] ;
399 -> 401 ;
402 [label=<price &le; 104.5<br/>squared_error = 614.163<br/>samples = 180<br/>value = 77.053>, fillcolor="#f9e2d1"] ;
340 -> 402 ;
403 [label=<daysAgo &le; 80.5<br/>squared_error = 434.062<br/>samples = 77<br/>value = 85.469>, fillcolor="#f8ddca"] ;
402 -> 403 ;
404 [label=<price &le; 84.5<br/>squared_error = 374.039<br/>samples = 49<br/>value = 78.423>, fillcolor="#f9e1d0"] ;
403 -> 404 ;
405 [label=<squared_error = 0.0<br/>samples = 5<br/>value = 29.0>, fillcolor="#fefbf9"] ;
404 -> 405 ;
406 [label=<near_holiday_1.0 &le; 0.5<br/>squared_error = 184.693<br/>samples = 44<br/>value = 82.542>, fillcolor="#f8dfcd"] ;
404 -> 406 ;
407 [label=<departure_weekday &le; 5.5<br/>squared_error = 176.046<br/>samples = 29<br/>value = 78.588>, fillcolor="#f9e1d0"] ;
406 -> 407 ;
408 [label=<squared_error = 111.638<br/>samples = 17<br/>value = 85.96>, fillcolor="#f8ddca"] ;
407 -> 408 ;
409 [label=<squared_error = 135.481<br/>samples = 12<br/>value = 71.5>, fillcolor="#fae5d6"] ;
407 -> 409 ;
410 [label=<price &le; 87.0<br/>squared_error = 75.551<br/>samples = 15<br/>value = 92.143>, fillcolor="#f7dac4"] ;
406 -> 410 ;
411 [label=<squared_error = 0.0<br/>samples = 2<br/>value = 73.0>, fillcolor="#f9e4d5"] ;
410 -> 411 ;
412 [label=<squared_error = 16.889<br/>samples = 13<br/>value = 95.333>, fillcolor="#f7d8c2"] ;
410 -> 412 ;
413 [label=<price &le; 99.0<br/>squared_error = 329.448<br/>samples = 28<br/>value = 96.46>, fillcolor="#f7d7c1"] ;
403 -> 413 ;
414 [label=<near_holiday_1.0 &le; 0.5<br/>squared_error = 121.856<br/>samples = 18<br/>value = 89.171>, fillcolor="#f8dbc7"] ;
413 -> 414 ;
415 [label=<departure_weekday &le; 5.5<br/>squared_error = 114.0<br/>samples = 9<br/>value = 80.0>, fillcolor="#f9e0cf"] ;
414 -> 415 ;
416 [label=<squared_error = 0.0<br/>samples = 4<br/>value = 91.0>, fillcolor="#f7dac5"] ;
415 -> 416 ;
417 [label=<squared_error = 55.556<br/>samples = 5<br/>value = 72.667>, fillcolor="#f9e4d5"] ;
415 -> 417 ;
418 [label=<departure_weekday &le; 5.5<br/>squared_error = 17.348<br/>samples = 9<br/>value = 96.05>, fillcolor="#f7d8c1"] ;
414 -> 418 ;
419 [label=<squared_error = 0.0<br/>samples = 4<br/>value = 92.0>, fillcolor="#f7dac5"] ;
418 -> 419 ;
420 [label=<squared_error = 7.14<br/>samples = 5<br/>value = 99.364>, fillcolor="#f7d6be"] ;
418 -> 420 ;
421 [label=<near_holiday_1.0 &le; 0.5<br/>squared_error = 400.649<br/>samples = 10<br/>value = 113.467>, fillcolor="#f5ceb3"] ;
413 -> 421 ;
422 [label=<near_holiday_0.0 &le; 0.5<br/>squared_error = 288.84<br/>samples = 7<br/>value = 125.778>, fillcolor="#f4c8a8"] ;
421 -> 422 ;
423 [label=<squared_error = 3.938<br/>samples = 6<br/>value = 131.75>, fillcolor="#f3c5a3"] ;
422 -> 423 ;
424 [label=<squared_error = 0.0<br/>samples = 1<br/>value = 78.0>, fillcolor="#f9e1d0"] ;
422 -> 424 ;
425 [label=<squared_error = 0.0<br/>samples = 3<br/>value = 95.0>, fillcolor="#f7d8c2"] ;
421 -> 425 ;
426 [label=<price &le; 130.5<br/>squared_error = 656.105<br/>samples = 103<br/>value = 70.103>, fillcolor="#fae6d7"] ;
402 -> 426 ;
427 [label=<price &le; 111.5<br/>squared_error = 570.585<br/>samples = 82<br/>value = 63.536>, fillcolor="#fae9dc"] ;
426 -> 427 ;
428 [label=<near_holiday_1.0 &le; 0.5<br/>squared_error = 377.474<br/>samples = 31<br/>value = 75.195>, fillcolor="#f9e3d3"] ;
427 -> 428 ;
429 [label=<near_holiday_-1.0 &le; 0.5<br/>squared_error = 385.48<br/>samples = 22<br/>value = 69.143>, fillcolor="#fae6d8"] ;
428 -> 429 ;
430 [label=<squared_error = 507.24<br/>samples = 9<br/>value = 56.6>, fillcolor="#fbede2"] ;
429 -> 430 ;
431 [label=<squared_error = 181.877<br/>samples = 13<br/>value = 76.111>, fillcolor="#f9e2d2"] ;
429 -> 431 ;
432 [label=<daysAgo &le; 71.5<br/>squared_error = 111.408<br/>samples = 9<br/>value = 88.231>, fillcolor="#f8dcc8"] ;
428 -> 432 ;
433 [label=<squared_error = 107.556<br/>samples = 4<br/>value = 80.333>, fillcolor="#f9e0ce"] ;
432 -> 433 ;
434 [label=<squared_error = 15.429<br/>samples = 5<br/>value = 95.0>, fillcolor="#f7d8c2"] ;
432 -> 434 ;
435 [label=<price &le; 112.5<br/>squared_error = 566.107<br/>samples = 51<br/>value = 57.845>, fillcolor="#fbece1"] ;
427 -> 435 ;
436 [label=<near_holiday_0.0 &le; 0.5<br/>squared_error = 246.997<br/>samples = 20<br/>value = 43.941>, fillcolor="#fdf3ed"] ;
435 -> 436 ;
437 [label=<squared_error = 295.255<br/>samples = 13<br/>value = 48.696>, fillcolor="#fcf1e9"] ;
436 -> 437 ;
438 [label=<squared_error = 0.0<br/>samples = 7<br/>value = 34.0>, fillcolor="#fef9f5"] ;
436 -> 438 ;
439 [label=<near_holiday_-1.0 &le; 0.5<br/>squared_error = 562.25<br/>samples = 31<br/>value = 67.3>, fillcolor="#fae7d9"] ;
435 -> 439 ;
440 [label=<squared_error = 591.558<br/>samples = 26<br/>value = 70.023>, fillcolor="#fae6d7"] ;
439 -> 440 ;
441 [label=<squared_error = 56.816<br/>samples = 5<br/>value = 50.571>, fillcolor="#fcf0e7"] ;
439 -> 441 ;
442 [label=<near_holiday_-1.0 &le; 0.5<br/>squared_error = 83.982<br/>samples = 21<br/>value = 97.467>, fillcolor="#f7d7c0"] ;
426 -> 442 ;
443 [label=<near_holiday_1.0 &le; 0.5<br/>squared_error = 0.246<br/>samples = 18<br/>value = 101.56>, fillcolor="#f6d5bd"] ;
442 -> 443 ;
444 [label=<squared_error = 0.0<br/>samples = 11<br/>value = 102.0>, fillcolor="#f6d4bc"] ;
443 -> 444 ;
445 [label=<squared_error = 0.0<br/>samples = 7<br/>value = 101.0>, fillcolor="#f6d5bd"] ;
443 -> 445 ;
446 [label=<squared_error = 0.0<br/>samples = 3<br/>value = 77.0>, fillcolor="#f9e2d1"] ;
442 -> 446 ;
447 [label=<daysAgo &le; 108.5<br/>squared_error = 878.161<br/>samples = 6626<br/>value = 107.254>, fillcolor="#f6d2b8"] ;
1 -> 447 ;
448 [label=<airport_distance_km &le; 1862.879<br/>squared_error = 708.861<br/>samples = 3404<br/>value = 96.602>, fillcolor="#f7d7c1"] ;
447 -> 448 ;
449 [label=<near_holiday_-1.0 &le; 0.5<br/>squared_error = 417.019<br/>samples = 2003<br/>value = 88.506>, fillcolor="#f8dcc7"] ;
448 -> 449 ;
450 [label=<near_holiday_1.0 &le; 0.5<br/>squared_error = 347.306<br/>samples = 1512<br/>value = 91.54>, fillcolor="#f7dac5"] ;
449 -> 450 ;
451 [label=<near_holiday_0.0 &le; 0.5<br/>squared_error = 289.978<br/>samples = 926<br/>value = 96.567>, fillcolor="#f7d7c1"] ;
450 -> 451 ;
452 [label=<price &le; 70.5<br/>squared_error = 280.474<br/>samples = 862<br/>value = 97.763>, fillcolor="#f7d7c0"] ;
451 -> 452 ;
453 [label=<departure_weekday &le; 5.5<br/>squared_error = 205.839<br/>samples = 622<br/>value = 95.786>, fillcolor="#f7d8c1"] ;
452 -> 453 ;
454 [label=<departure_airport &le; 0.5<br/>squared_error = 191.053<br/>samples = 568<br/>value = 94.748>, fillcolor="#f7d8c2"] ;
453 -> 454 ;
455 [label=<squared_error = 126.247<br/>samples = 141<br/>value = 89.673>, fillcolor="#f8dbc7"] ;
454 -> 455 ;
456 [label=<squared_error = 201.164<br/>samples = 427<br/>value = 96.429>, fillcolor="#f7d7c1"] ;
454 -> 456 ;
457 [label=<daysAgo &le; 88.5<br/>squared_error = 233.877<br/>samples = 54<br/>value = 106.333>, fillcolor="#f6d2b9"] ;
453 -> 457 ;
458 [label=<squared_error = 30.321<br/>samples = 6<br/>value = 91.889>, fillcolor="#f7dac5"] ;
457 -> 458 ;
459 [label=<squared_error = 230.513<br/>samples = 48<br/>value = 108.0>, fillcolor="#f6d1b7"] ;
457 -> 459 ;
460 [label=<arrival_airport &le; 3.5<br/>squared_error = 431.678<br/>samples = 240<br/>value = 102.661>, fillcolor="#f6d4bc"] ;
452 -> 460 ;
461 [label=<price &le; 138.5<br/>squared_error = 447.191<br/>samples = 171<br/>value = 107.613>, fillcolor="#f6d1b7"] ;
460 -> 461 ;
462 [label=<squared_error = 447.652<br/>samples = 153<br/>value = 110.089>, fillcolor="#f5d0b5"] ;
461 -> 462 ;
463 [label=<squared_error = 31.0<br/>samples = 18<br/>value = 88.5>, fillcolor="#f8dcc7"] ;
461 -> 463 ;
464 [label=<departure_weekday &le; 3.5<br/>squared_error = 183.325<br/>samples = 69<br/>value = 90.434>, fillcolor="#f7dbc6"] ;
460 -> 464 ;
465 [label=<squared_error = 192.0<br/>samples = 17<br/>value = 78.0>, fillcolor="#f9e1d0"] ;
464 -> 465 ;
466 [label=<squared_error = 112.767<br/>samples = 52<br/>value = 94.529>, fillcolor="#f7d8c2"] ;
464 -> 466 ;
467 [label=<departure_weekday &le; 0.5<br/>squared_error = 121.047<br/>samples = 64<br/>value = 79.763>, fillcolor="#f9e0cf"] ;
451 -> 467 ;
468 [label=<squared_error = 0.0<br/>samples = 3<br/>value = 45.0>, fillcolor="#fdf3ec"] ;
467 -> 468 ;
469 [label=<price &le; 81.5<br/>squared_error = 58.379<br/>samples = 61<br/>value = 81.652>, fillcolor="#f8dfcd"] ;
467 -> 469 ;
470 [label=<price &le; 59.5<br/>squared_error = 5.535<br/>samples = 33<br/>value = 77.583>, fillcolor="#f9e2d1"] ;
469 -> 470 ;
471 [label=<squared_error = 4.522<br/>samples = 27<br/>value = 78.048>, fillcolor="#f9e1d0"] ;
470 -> 471 ;
472 [label=<squared_error = 0.556<br/>samples = 6<br/>value = 74.333>, fillcolor="#f9e3d3"] ;
470 -> 472 ;
473 [label=<departure_airport &le; 1.0<br/>squared_error = 78.264<br/>samples = 28<br/>value = 86.091>, fillcolor="#f8ddca"] ;
469 -> 473 ;
474 [label=<squared_error = 0.0<br/>samples = 11<br/>value = 96.0>, fillcolor="#f7d8c1"] ;
473 -> 474 ;
475 [label=<squared_error = 26.793<br/>samples = 17<br/>value = 79.852>, fillcolor="#f9e0cf"] ;
473 -> 475 ;
476 [label=<price &le; 86.5<br/>squared_error = 334.961<br/>samples = 586<br/>value = 83.606>, fillcolor="#f8decc"] ;
450 -> 476 ;
477 [label=<departure_weekday &le; 3.5<br/>squared_error = 344.851<br/>samples = 420<br/>value = 86.205>, fillcolor="#f8ddc9"] ;
476 -> 477 ;
478 [label=<price &le; 56.5<br/>squared_error = 175.038<br/>samples = 259<br/>value = 80.903>, fillcolor="#f9e0ce"] ;
477 -> 478 ;
479 [label=<airport_distance_km &le; 993.364<br/>squared_error = 114.985<br/>samples = 151<br/>value = 85.551>, fillcolor="#f8ddca"] ;
478 -> 479 ;
480 [label=<squared_error = 101.878<br/>samples = 51<br/>value = 92.89>, fillcolor="#f7d9c4"] ;
479 -> 480 ;
481 [label=<squared_error = 85.924<br/>samples = 100<br/>value = 82.264>, fillcolor="#f8dfcd"] ;
479 -> 481 ;
482 [label=<daysAgo &le; 99.5<br/>squared_error = 186.039<br/>samples = 108<br/>value = 74.295>, fillcolor="#f9e3d3"] ;
478 -> 482 ;
483 [label=<squared_error = 139.936<br/>samples = 75<br/>value = 69.573>, fillcolor="#fae6d7"] ;
482 -> 483 ;
484 [label=<squared_error = 146.745<br/>samples = 33<br/>value = 83.571>, fillcolor="#f8decc"] ;
482 -> 484 ;
485 [label=<departure_airport &le; 0.5<br/>squared_error = 498.356<br/>samples = 161<br/>value = 94.565>, fillcolor="#f7d8c2"] ;
477 -> 485 ;
486 [label=<price &le; 74.5<br/>squared_error = 338.996<br/>samples = 68<br/>value = 85.814>, fillcolor="#f8ddca"] ;
485 -> 486 ;
487 [label=<squared_error = 314.393<br/>samples = 61<br/>value = 84.011>, fillcolor="#f8decb"] ;
486 -> 487 ;
488 [label=<squared_error = 174.109<br/>samples = 7<br/>value = 105.875>, fillcolor="#f6d2b9"] ;
486 -> 488 ;
489 [label=<price &le; 62.5<br/>squared_error = 520.325<br/>samples = 93<br/>value = 99.937>, fillcolor="#f6d6be"] ;
485 -> 489 ;
490 [label=<squared_error = 323.774<br/>samples = 54<br/>value = 93.344>, fillcolor="#f7d9c3"] ;
489 -> 490 ;
491 [label=<squared_error = 650.387<br/>samples = 39<br/>value = 109.369>, fillcolor="#f5d1b6"] ;
489 -> 491 ;
492 [label=<departure_weekday &le; 1.5<br/>squared_error = 253.56<br/>samples = 166<br/>value = 77.235>, fillcolor="#f9e2d1"] ;
476 -> 492 ;
493 [label=<departure_airport &le; 1.5<br/>squared_error = 147.334<br/>samples = 43<br/>value = 93.613>, fillcolor="#f7d9c3"] ;
492 -> 493 ;
494 [label=<airport_distance_km &le; 993.364<br/>squared_error = 93.04<br/>samples = 17<br/>value = 84.0>, fillcolor="#f8decb"] ;
493 -> 494 ;
495 [label=<squared_error = 37.236<br/>samples = 15<br/>value = 86.261>, fillcolor="#f8ddc9"] ;
494 -> 495 ;
496 [label=<squared_error = 0.0<br/>samples = 2<br/>value = 58.0>, fillcolor="#fbece1"] ;
494 -> 496 ;
497 [label=<daysAgo &le; 93.0<br/>squared_error = 79.394<br/>samples = 26<br/>value = 100.108>, fillcolor="#f6d5be"] ;
493 -> 497 ;
498 [label=<squared_error = 77.917<br/>samples = 13<br/>value = 93.5>, fillcolor="#f7d9c3"] ;
497 -> 498 ;
499 [label=<squared_error = 0.233<br/>samples = 13<br/>value = 106.368>, fillcolor="#f6d2b8"] ;
497 -> 499 ;
500 [label=<departure_weekday &le; 5.5<br/>squared_error = 180.504<br/>samples = 123<br/>value = 72.306>, fillcolor="#f9e4d5"] ;
492 -> 500 ;
501 [label=<departure_airport &le; 0.5<br/>squared_error = 158.014<br/>samples = 102<br/>value = 74.789>, fillcolor="#f9e3d3"] ;
500 -> 501 ;
502 [label=<squared_error = 28.931<br/>samples = 23<br/>value = 81.737>, fillcolor="#f8dfcd"] ;
501 -> 502 ;
503 [label=<squared_error = 177.165<br/>samples = 79<br/>value = 72.805>, fillcolor="#f9e4d5"] ;
501 -> 503 ;
504 [label=<price &le; 106.5<br/>squared_error = 112.999<br/>samples = 21<br/>value = 60.171>, fillcolor="#fbebdf"] ;
500 -> 504 ;
505 [label=<squared_error = 33.058<br/>samples = 11<br/>value = 66.818>, fillcolor="#fae7da"] ;
504 -> 505 ;
506 [label=<squared_error = 46.994<br/>samples = 10<br/>value = 48.923>, fillcolor="#fcf1e9"] ;
504 -> 506 ;
507 [label=<daysAgo &le; 101.5<br/>squared_error = 515.639<br/>samples = 491<br/>value = 79.401>, fillcolor="#f9e1cf"] ;
449 -> 507 ;
508 [label=<departure_airport &le; 0.5<br/>squared_error = 314.397<br/>samples = 336<br/>value = 71.918>, fillcolor="#fae5d5"] ;
507 -> 508 ;
509 [label=<price &le; 130.0<br/>squared_error = 261.849<br/>samples = 130<br/>value = 63.133>, fillcolor="#fbe9dd"] ;
508 -> 509 ;
510 [label=<departure_weekday &le; 0.5<br/>squared_error = 245.713<br/>samples = 123<br/>value = 64.698>, fillcolor="#fae8db"] ;
509 -> 510 ;
511 [label=<price &le; 53.0<br/>squared_error = 146.083<br/>samples = 24<br/>value = 55.615>, fillcolor="#fbede3"] ;
510 -> 511 ;
512 [label=<squared_error = 92.16<br/>samples = 6<br/>value = 50.2>, fillcolor="#fcf0e8"] ;
511 -> 512 ;
513 [label=<squared_error = 151.077<br/>samples = 18<br/>value = 57.483>, fillcolor="#fbece2"] ;
511 -> 513 ;
514 [label=<price &le; 59.5<br/>squared_error = 244.59<br/>samples = 99<br/>value = 67.06>, fillcolor="#fae7da"] ;
510 -> 514 ;
515 [label=<squared_error = 180.819<br/>samples = 25<br/>value = 78.325>, fillcolor="#f9e1d0"] ;
514 -> 515 ;
516 [label=<squared_error = 204.853<br/>samples = 74<br/>value = 62.964>, fillcolor="#fbe9dd"] ;
514 -> 516 ;
517 [label=<squared_error = 0.0<br/>samples = 7<br/>value = 42.0>, fillcolor="#fdf5ef"] ;
509 -> 517 ;
518 [label=<price &le; 54.5<br/>squared_error = 272.993<br/>samples = 206<br/>value = 77.102>, fillcolor="#f9e2d1"] ;
508 -> 518 ;
519 [label=<departure_airport &le; 1.5<br/>squared_error = 196.838<br/>samples = 47<br/>value = 87.628>, fillcolor="#f8dcc8"] ;
518 -> 519 ;
520 [label=<departure_weekday &le; 4.5<br/>squared_error = 97.483<br/>samples = 27<br/>value = 94.532>, fillcolor="#f7d8c2"] ;
519 -> 520 ;
521 [label=<squared_error = 2.391<br/>samples = 24<br/>value = 98.268>, fillcolor="#f7d6bf"] ;
520 -> 521 ;
522 [label=<squared_error = 0.0<br/>samples = 3<br/>value = 69.0>, fillcolor="#fae6d8"] ;
520 -> 522 ;
523 [label=<departure_weekday &le; 0.5<br/>squared_error = 189.905<br/>samples = 20<br/>value = 79.308>, fillcolor="#f9e1cf"] ;
519 -> 523 ;
524 [label=<squared_error = 0.0<br/>samples = 3<br/>value = 60.0>, fillcolor="#fbebdf"] ;
523 -> 524 ;
525 [label=<squared_error = 144.331<br/>samples = 17<br/>value = 82.818>, fillcolor="#f8dfcc"] ;
523 -> 525 ;
526 [label=<price &le; 105.5<br/>squared_error = 249.133<br/>samples = 159<br/>value = 73.593>, fillcolor="#f9e4d4"] ;
518 -> 526 ;
527 [label=<price &le; 58.5<br/>squared_error = 223.59<br/>samples = 141<br/>value = 75.387>, fillcolor="#f9e3d3"] ;
526 -> 527 ;
528 [label=<squared_error = 146.734<br/>samples = 23<br/>value = 59.176>, fillcolor="#fbebe0"] ;
527 -> 528 ;
529 [label=<squared_error = 184.62<br/>samples = 118<br/>value = 78.129>, fillcolor="#f9e1d0"] ;
527 -> 529 ;
530 [label=<price &le; 108.0<br/>squared_error = 141.149<br/>samples = 18<br/>value = 55.261>, fillcolor="#fbede3"] ;
526 -> 530 ;
531 [label=<squared_error = 0.0<br/>samples = 1<br/>value = 41.0>, fillcolor="#fdf5ef"] ;
530 -> 531 ;
532 [label=<squared_error = 127.24<br/>samples = 17<br/>value = 57.4>, fillcolor="#fbece2"] ;
530 -> 532 ;
533 [label=<price &le; 125.5<br/>squared_error = 563.536<br/>samples = 155<br/>value = 95.907>, fillcolor="#f7d8c1"] ;
507 -> 533 ;
534 [label=<departure_airport &le; 0.5<br/>squared_error = 383.792<br/>samples = 136<br/>value = 90.732>, fillcolor="#f7dac6"] ;
533 -> 534 ;
535 [label=<price &le; 116.5<br/>squared_error = 367.969<br/>samples = 34<br/>value = 78.66>, fillcolor="#f9e1d0"] ;
534 -> 535 ;
536 [label=<daysAgo &le; 107.5<br/>squared_error = 308.782<br/>samples = 32<br/>value = 76.867>, fillcolor="#f9e2d1"] ;
535 -> 536 ;
537 [label=<squared_error = 178.274<br/>samples = 26<br/>value = 74.333>, fillcolor="#f9e3d3"] ;
536 -> 537 ;
538 [label=<squared_error = 844.222<br/>samples = 6<br/>value = 93.333>, fillcolor="#f7d9c3"] ;
536 -> 538 ;
539 [label=<squared_error = 0.0<br/>samples = 2<br/>value = 119.0>, fillcolor="#f4cbae"] ;
535 -> 539 ;
540 [label=<price &le; 56.0<br/>squared_error = 335.321<br/>samples = 102<br/>value = 94.151>, fillcolor="#f7d9c3"] ;
534 -> 540 ;
541 [label=<departure_weekday &le; 2.5<br/>squared_error = 310.718<br/>samples = 31<br/>value = 101.96>, fillcolor="#f6d4bc"] ;
540 -> 541 ;
542 [label=<squared_error = 374.179<br/>samples = 19<br/>value = 95.419>, fillcolor="#f7d8c2"] ;
541 -> 542 ;
543 [label=<squared_error = 23.496<br/>samples = 12<br/>value = 112.632>, fillcolor="#f5cfb3"] ;
541 -> 543 ;
544 [label=<price &le; 87.0<br/>squared_error = 308.307<br/>samples = 71<br/>value = 90.784>, fillcolor="#f7dac6"] ;
540 -> 544 ;
545 [label=<squared_error = 338.216<br/>samples = 44<br/>value = 85.106>, fillcolor="#f8ddca"] ;
544 -> 545 ;
546 [label=<squared_error = 170.082<br/>samples = 27<br/>value = 98.28>, fillcolor="#f7d6bf"] ;
544 -> 546 ;
547 [label=<departure_airport &le; 0.5<br/>squared_error = 502.64<br/>samples = 19<br/>value = 127.4>, fillcolor="#f3c7a7"] ;
533 -> 547 ;
548 [label=<departure_weekday &le; 1.0<br/>squared_error = 335.82<br/>samples = 17<br/>value = 130.758>, fillcolor="#f3c5a4"] ;
547 -> 548 ;
549 [label=<squared_error = 0.0<br/>samples = 1<br/>value = 156.0>, fillcolor="#f0b88f"] ;
548 -> 549 ;
550 [label=<departure_weekday &le; 5.5<br/>squared_error = 313.725<br/>samples = 16<br/>value = 129.129>, fillcolor="#f3c6a5"] ;
548 -> 550 ;
551 [label=<squared_error = 280.166<br/>samples = 14<br/>value = 127.621>, fillcolor="#f3c7a7"] ;
550 -> 551 ;
552 [label=<squared_error = 289.0<br/>samples = 2<br/>value = 151.0>, fillcolor="#f1ba93"] ;
550 -> 552 ;
553 [label=<squared_error = 0.0<br/>samples = 2<br/>value = 72.0>, fillcolor="#fae4d5"] ;
547 -> 553 ;
554 [label=<near_holiday_1.0 &le; 0.5<br/>squared_error = 897.506<br/>samples = 1401<br/>value = 108.0>, fillcolor="#f6d1b7"] ;
448 -> 554 ;
555 [label=<near_holiday_-1.0 &le; 0.5<br/>squared_error = 903.789<br/>samples = 982<br/>value = 114.704>, fillcolor="#f5ceb1"] ;
554 -> 555 ;
556 [label=<near_holiday_0.0 &le; 0.5<br/>squared_error = 600.374<br/>samples = 660<br/>value = 124.545>, fillcolor="#f4c8a9"] ;
555 -> 556 ;
557 [label=<price &le; 115.5<br/>squared_error = 429.638<br/>samples = 613<br/>value = 128.004>, fillcolor="#f3c7a6"] ;
556 -> 557 ;
558 [label=<price &le; 89.5<br/>squared_error = 271.756<br/>samples = 430<br/>value = 130.336>, fillcolor="#f3c5a4"] ;
557 -> 558 ;
559 [label=<daysAgo &le; 102.5<br/>squared_error = 208.452<br/>samples = 131<br/>value = 125.546>, fillcolor="#f4c8a8"] ;
558 -> 559 ;
560 [label=<squared_error = 205.407<br/>samples = 61<br/>value = 121.029>, fillcolor="#f4caac"] ;
559 -> 560 ;
561 [label=<squared_error = 175.675<br/>samples = 70<br/>value = 129.664>, fillcolor="#f3c6a5"] ;
559 -> 561 ;
562 [label=<arrival_airport &le; 0.5<br/>squared_error = 285.148<br/>samples = 299<br/>value = 132.46>, fillcolor="#f3c4a3"] ;
558 -> 562 ;
563 [label=<squared_error = 176.932<br/>samples = 166<br/>value = 130.067>, fillcolor="#f3c5a5"] ;
562 -> 563 ;
564 [label=<squared_error = 416.309<br/>samples = 133<br/>value = 135.779>, fillcolor="#f2c2a0"] ;
562 -> 564 ;
565 [label=<price &le; 133.5<br/>squared_error = 776.996<br/>samples = 183<br/>value = 122.171>, fillcolor="#f4caab"] ;
557 -> 565 ;
566 [label=<departure_weekday &le; 2.5<br/>squared_error = 1015.19<br/>samples = 87<br/>value = 114.085>, fillcolor="#f5ceb2"] ;
565 -> 566 ;
567 [label=<squared_error = 260.927<br/>samples = 34<br/>value = 131.536>, fillcolor="#f3c5a3"] ;
566 -> 567 ;
568 [label=<squared_error = 1178.899<br/>samples = 53<br/>value = 102.721>, fillcolor="#f6d4bc"] ;
566 -> 568 ;
569 [label=<airport_distance_km &le; 2139.685<br/>squared_error = 398.619<br/>samples = 96<br/>value = 130.432>, fillcolor="#f3c5a4"] ;
565 -> 569 ;
570 [label=<squared_error = 347.313<br/>samples = 85<br/>value = 133.975>, fillcolor="#f3c3a1"] ;
569 -> 570 ;
571 [label=<squared_error = 91.682<br/>samples = 11<br/>value = 106.611>, fillcolor="#f6d2b8"] ;
569 -> 571 ;
572 [label=<daysAgo &le; 92.5<br/>squared_error = 650.628<br/>samples = 47<br/>value = 79.763>, fillcolor="#f9e0cf"] ;
556 -> 572 ;
573 [label=<price &le; 98.5<br/>squared_error = 491.866<br/>samples = 14<br/>value = 56.88>, fillcolor="#fbede2"] ;
572 -> 573 ;
574 [label=<squared_error = 0.0<br/>samples = 1<br/>value = 94.0>, fillcolor="#f7d9c3"] ;
573 -> 574 ;
575 [label=<price &le; 119.0<br/>squared_error = 404.401<br/>samples = 13<br/>value = 53.652>, fillcolor="#fceee5"] ;
573 -> 575 ;
576 [label=<squared_error = 174.24<br/>samples = 5<br/>value = 38.4>, fillcolor="#fdf6f2"] ;
575 -> 576 ;
577 [label=<squared_error = 264.852<br/>samples = 8<br/>value = 65.385>, fillcolor="#fae8db"] ;
575 -> 577 ;
578 [label=<departure_weekday &le; 4.0<br/>squared_error = 345.941<br/>samples = 33<br/>value = 90.98>, fillcolor="#f7dac5"] ;
572 -> 578 ;
579 [label=<squared_error = 0.0<br/>samples = 6<br/>value = 56.0>, fillcolor="#fbede3"] ;
578 -> 579 ;
580 [label=<departure_airport &le; 1.5<br/>squared_error = 175.339<br/>samples = 27<br/>value = 96.545>, fillcolor="#f7d7c1"] ;
578 -> 580 ;
581 [label=<squared_error = 0.0<br/>samples = 9<br/>value = 112.0>, fillcolor="#f5cfb4"] ;
580 -> 581 ;
582 [label=<squared_error = 61.061<br/>samples = 18<br/>value = 87.714>, fillcolor="#f8dcc8"] ;
580 -> 582 ;
583 [label=<daysAgo &le; 101.5<br/>squared_error = 927.497<br/>samples = 322<br/>value = 94.911>, fillcolor="#f7d8c2"] ;
555 -> 583 ;
584 [label=<price &le; 144.5<br/>squared_error = 594.763<br/>samples = 225<br/>value = 84.901>, fillcolor="#f8decb"] ;
583 -> 584 ;
585 [label=<departure_weekday &le; 5.5<br/>squared_error = 549.744<br/>samples = 193<br/>value = 88.132>, fillcolor="#f8dcc8"] ;
584 -> 585 ;
586 [label=<price &le; 114.0<br/>squared_error = 519.375<br/>samples = 169<br/>value = 90.836>, fillcolor="#f7dac6"] ;
585 -> 586 ;
587 [label=<squared_error = 295.361<br/>samples = 112<br/>value = 86.478>, fillcolor="#f8ddc9"] ;
586 -> 587 ;
588 [label=<squared_error = 824.417<br/>samples = 57<br/>value = 98.604>, fillcolor="#f7d6bf"] ;
586 -> 588 ;
589 [label=<daysAgo &le; 100.5<br/>squared_error = 303.052<br/>samples = 24<br/>value = 67.595>, fillcolor="#fae7d9"] ;
585 -> 589 ;
590 [label=<squared_error = 74.999<br/>samples = 22<br/>value = 65.029>, fillcolor="#fae8db"] ;
589 -> 590 ;
591 [label=<squared_error = 2162.25<br/>samples = 2<br/>value = 112.5>, fillcolor="#f5cfb3"] ;
589 -> 591 ;
592 [label=<departure_weekday &le; 4.5<br/>squared_error = 350.934<br/>samples = 32<br/>value = 63.043>, fillcolor="#fbe9dd"] ;
584 -> 592 ;
593 [label=<price &le; 184.5<br/>squared_error = 392.171<br/>samples = 22<br/>value = 68.636>, fillcolor="#fae6d8"] ;
592 -> 593 ;
594 [label=<squared_error = 339.769<br/>samples = 20<br/>value = 70.806>, fillcolor="#fae5d6"] ;
593 -> 594 ;
595 [label=<squared_error = 0.0<br/>samples = 2<br/>value = 35.0>, fillcolor="#fef8f4"] ;
593 -> 595 ;
596 [label=<airport_distance_km &le; 2139.685<br/>squared_error = 6.122<br/>samples = 10<br/>value = 49.857>, fillcolor="#fcf0e8"] ;
592 -> 596 ;
597 [label=<squared_error = 0.24<br/>samples = 7<br/>value = 51.4>, fillcolor="#fcf0e7"] ;
596 -> 597 ;
598 [label=<squared_error = 0.0<br/>samples = 3<br/>value = 46.0>, fillcolor="#fcf2eb"] ;
596 -> 598 ;
599 [label=<price &le; 71.0<br/>squared_error = 942.841<br/>samples = 97<br/>value = 117.463>, fillcolor="#f5ccaf"] ;
583 -> 599 ;
600 [label=<departure_weekday &le; 3.5<br/>squared_error = 117.16<br/>samples = 5<br/>value = 160.385>, fillcolor="#f0b58b"] ;
599 -> 600 ;
601 [label=<squared_error = 0.0<br/>samples = 4<br/>value = 165.0>, fillcolor="#efb387"] ;
600 -> 601 ;
602 [label=<squared_error = 0.0<br/>samples = 1<br/>value = 135.0>, fillcolor="#f3c3a0"] ;
600 -> 602 ;
603 [label=<price &le; 115.5<br/>squared_error = 840.122<br/>samples = 92<br/>value = 113.718>, fillcolor="#f5ceb2"] ;
599 -> 603 ;
604 [label=<departure_weekday &le; 2.5<br/>squared_error = 917.382<br/>samples = 67<br/>value = 105.657>, fillcolor="#f6d3b9"] ;
603 -> 604 ;
605 [label=<squared_error = 560.796<br/>samples = 35<br/>value = 120.339>, fillcolor="#f4cbad"] ;
604 -> 605 ;
606 [label=<squared_error = 769.561<br/>samples = 32<br/>value = 87.783>, fillcolor="#f8dcc8"] ;
604 -> 606 ;
607 [label=<departure_weekday &le; 4.5<br/>squared_error = 225.359<br/>samples = 25<br/>value = 131.213>, fillcolor="#f3c5a4"] ;
603 -> 607 ;
608 [label=<squared_error = 116.316<br/>samples = 21<br/>value = 126.976>, fillcolor="#f3c7a7"] ;
607 -> 608 ;
609 [label=<squared_error = 9.472<br/>samples = 4<br/>value = 160.167>, fillcolor="#f0b58b"] ;
607 -> 609 ;
610 [label=<price &le; 131.0<br/>squared_error = 525.775<br/>samples = 419<br/>value = 92.165>, fillcolor="#f7dac4"] ;
554 -> 610 ;
611 [label=<departure_airport &le; 1.5<br/>squared_error = 420.804<br/>samples = 350<br/>value = 86.924>, fillcolor="#f8ddc9"] ;
610 -> 611 ;
612 [label=<price &le; 115.5<br/>squared_error = 505.562<br/>samples = 137<br/>value = 70.179>, fillcolor="#fae5d7"] ;
611 -> 612 ;
613 [label=<price &le; 89.0<br/>squared_error = 55.908<br/>samples = 93<br/>value = 61.439>, fillcolor="#fbeade"] ;
612 -> 613 ;
614 [label=<squared_error = 0.0<br/>samples = 3<br/>value = 45.0>, fillcolor="#fdf3ec"] ;
613 -> 614 ;
615 [label=<price &le; 102.5<br/>squared_error = 48.084<br/>samples = 90<br/>value = 62.014>, fillcolor="#fbeade"] ;
613 -> 615 ;
616 [label=<squared_error = 52.373<br/>samples = 48<br/>value = 60.28>, fillcolor="#fbebdf"] ;
615 -> 616 ;
617 [label=<squared_error = 32.849<br/>samples = 42<br/>value = 64.344>, fillcolor="#fae9dc"] ;
615 -> 617 ;
618 [label=<departure_weekday &le; 1.5<br/>squared_error = 960.238<br/>samples = 44<br/>value = 90.391>, fillcolor="#f8dbc6"] ;
612 -> 618 ;
619 [label=<departure_weekday &le; 0.5<br/>squared_error = 0.094<br/>samples = 13<br/>value = 125.895>, fillcolor="#f4c8a8"] ;
618 -> 619 ;
620 [label=<squared_error = 0.0<br/>samples = 2<br/>value = 125.0>, fillcolor="#f4c8a9"] ;
619 -> 620 ;
621 [label=<squared_error = 0.0<br/>samples = 11<br/>value = 126.0>, fillcolor="#f4c8a8"] ;
619 -> 621 ;
622 [label=<departure_weekday &le; 5.5<br/>squared_error = 608.684<br/>samples = 31<br/>value = 75.4>, fillcolor="#f9e3d2"] ;
618 -> 622 ;
623 [label=<squared_error = 22.743<br/>samples = 26<br/>value = 63.25>, fillcolor="#fae9dd"] ;
622 -> 623 ;
624 [label=<squared_error = 0.0<br/>samples = 5<br/>value = 124.0>, fillcolor="#f4c9aa"] ;
622 -> 624 ;
625 [label=<price &le; 112.5<br/>squared_error = 105.078<br/>samples = 213<br/>value = 96.868>, fillcolor="#f7d7c0"] ;
611 -> 625 ;
626 [label=<price &le; 94.5<br/>squared_error = 37.172<br/>samples = 180<br/>value = 99.192>, fillcolor="#f7d6bf"] ;
625 -> 626 ;
627 [label=<departure_weekday &le; 1.5<br/>squared_error = 36.881<br/>samples = 130<br/>value = 100.897>, fillcolor="#f6d5bd"] ;
626 -> 627 ;
628 [label=<squared_error = 47.988<br/>samples = 50<br/>value = 103.635>, fillcolor="#f6d4bb"] ;
627 -> 628 ;
629 [label=<squared_error = 23.739<br/>samples = 80<br/>value = 99.326>, fillcolor="#f7d6be"] ;
627 -> 629 ;
630 [label=<daysAgo &le; 98.0<br/>squared_error = 17.973<br/>samples = 50<br/>value = 95.511>, fillcolor="#f7d8c2"] ;
626 -> 630 ;
631 [label=<squared_error = 18.183<br/>samples = 21<br/>value = 93.081>, fillcolor="#f7d9c4"] ;
630 -> 631 ;
632 [label=<squared_error = 11.519<br/>samples = 29<br/>value = 97.088>, fillcolor="#f7d7c0"] ;
630 -> 632 ;
633 [label=<departure_weekday &le; 5.5<br/>squared_error = 282.199<br/>samples = 33<br/>value = 85.367>, fillcolor="#f8ddca"] ;
625 -> 633 ;
634 [label=<price &le; 113.5<br/>squared_error = 94.643<br/>samples = 29<br/>value = 89.582>, fillcolor="#f8dbc7"] ;
633 -> 634 ;
635 [label=<squared_error = 77.262<br/>samples = 8<br/>value = 80.733>, fillcolor="#f9e0ce"] ;
634 -> 635 ;
636 [label=<squared_error = 60.79<br/>samples = 21<br/>value = 92.9>, fillcolor="#f7d9c4"] ;
634 -> 636 ;
637 [label=<squared_error = 0.0<br/>samples = 4<br/>value = 39.0>, fillcolor="#fdf6f1"] ;
633 -> 637 ;
638 [label=<price &le; 134.0<br/>squared_error = 115.753<br/>samples = 69<br/>value = 121.117>, fillcolor="#f4caac"] ;
610 -> 638 ;
639 [label=<departure_weekday &le; 1.5<br/>squared_error = 149.171<br/>samples = 21<br/>value = 113.781>, fillcolor="#f5ceb2"] ;
638 -> 639 ;
640 [label=<squared_error = 0.0<br/>samples = 11<br/>value = 125.0>, fillcolor="#f4c8a9"] ;
639 -> 640 ;
641 [label=<departure_weekday &le; 3.5<br/>squared_error = 71.751<br/>samples = 10<br/>value = 103.882>, fillcolor="#f6d3bb"] ;
639 -> 641 ;
642 [label=<squared_error = 0.0<br/>samples = 9<br/>value = 106.0>, fillcolor="#f6d2b9"] ;
641 -> 642 ;
643 [label=<squared_error = 0.0<br/>samples = 1<br/>value = 70.0>, fillcolor="#fae6d7"] ;
641 -> 643 ;
644 [label=<arrival_airport &le; 0.5<br/>squared_error = 65.512<br/>samples = 48<br/>value = 124.423>, fillcolor="#f4c8a9"] ;
638 -> 644 ;
645 [label=<departure_weekday &le; 2.5<br/>squared_error = 32.0<br/>samples = 3<br/>value = 97.0>, fillcolor="#f7d7c0"] ;
644 -> 645 ;
646 [label=<squared_error = 0.0<br/>samples = 1<br/>value = 89.0>, fillcolor="#f8dbc7"] ;
645 -> 646 ;
647 [label=<squared_error = 0.0<br/>samples = 2<br/>value = 101.0>, fillcolor="#f6d5bd"] ;
645 -> 647 ;
648 [label=<departure_weekday &le; 3.5<br/>squared_error = 32.35<br/>samples = 45<br/>value = 125.632>, fillcolor="#f4c8a8"] ;
644 -> 648 ;
649 [label=<departure_weekday &le; 2.5<br/>squared_error = 52.0<br/>samples = 13<br/>value = 119.0>, fillcolor="#f4cbae"] ;
648 -> 649 ;
650 [label=<squared_error = 0.0<br/>samples = 10<br/>value = 123.0>, fillcolor="#f4c9ab"] ;
649 -> 650 ;
651 [label=<squared_error = 0.0<br/>samples = 3<br/>value = 106.0>, fillcolor="#f6d2b9"] ;
649 -> 651 ;
652 [label=<departure_weekday &le; 5.5<br/>squared_error = 6.25<br/>samples = 32<br/>value = 127.843>, fillcolor="#f3c7a6"] ;
648 -> 652 ;
653 [label=<squared_error = 0.912<br/>samples = 22<br/>value = 129.297>, fillcolor="#f3c6a5"] ;
652 -> 653 ;
654 [label=<squared_error = 0.0<br/>samples = 10<br/>value = 124.0>, fillcolor="#f4c9aa"] ;
652 -> 654 ;
655 [label=<arrival_airport &le; 1.5<br/>squared_error = 807.208<br/>samples = 3222<br/>value = 118.697>, fillcolor="#f4ccae"] ;
447 -> 655 ;
656 [label=<price &le; 143.5<br/>squared_error = 707.615<br/>samples = 1279<br/>value = 134.395>, fillcolor="#f3c3a1"] ;
655 -> 656 ;
657 [label=<price &le; 74.0<br/>squared_error = 642.58<br/>samples = 1121<br/>value = 130.977>, fillcolor="#f3c5a4"] ;
656 -> 657 ;
658 [label=<price &le; 66.5<br/>squared_error = 320.0<br/>samples = 218<br/>value = 149.262>, fillcolor="#f1bb94"] ;
657 -> 658 ;
659 [label=<arrival_airport &le; 0.5<br/>squared_error = 84.037<br/>samples = 62<br/>value = 136.606>, fillcolor="#f2c29f"] ;
658 -> 659 ;
660 [label=<price &le; 59.0<br/>squared_error = 70.721<br/>samples = 55<br/>value = 138.227>, fillcolor="#f2c19e"] ;
659 -> 660 ;
661 [label=<departure_weekday &le; 4.5<br/>squared_error = 66.175<br/>samples = 30<br/>value = 134.537>, fillcolor="#f3c3a1"] ;
660 -> 661 ;
662 [label=<squared_error = 51.341<br/>samples = 21<br/>value = 137.308>, fillcolor="#f2c29f"] ;
661 -> 662 ;
663 [label=<squared_error = 32.889<br/>samples = 9<br/>value = 127.333>, fillcolor="#f3c7a7"] ;
661 -> 663 ;
664 [label=<departure_weekday &le; 1.5<br/>squared_error = 21.963<br/>samples = 25<br/>value = 144.088>, fillcolor="#f2be99"] ;
660 -> 664 ;
665 [label=<squared_error = 23.91<br/>samples = 8<br/>value = 141.583>, fillcolor="#f2bf9b"] ;
664 -> 665 ;
666 [label=<squared_error = 15.612<br/>samples = 17<br/>value = 145.455>, fillcolor="#f1bd98"] ;
664 -> 666 ;
667 [label=<daysAgo &le; 119.0<br/>squared_error = 1.322<br/>samples = 7<br/>value = 123.636>, fillcolor="#f4c9aa"] ;
659 -> 667 ;
668 [label=<squared_error = 0.0<br/>samples = 6<br/>value = 124.0>, fillcolor="#f4c9aa"] ;
667 -> 668 ;
669 [label=<squared_error = 0.0<br/>samples = 1<br/>value = 120.0>, fillcolor="#f4cbad"] ;
667 -> 669 ;
670 [label=<near_holiday_0.0 &le; 0.5<br/>squared_error = 325.052<br/>samples = 156<br/>value = 154.234>, fillcolor="#f0b990"] ;
658 -> 670 ;
671 [label=<departure_weekday &le; 5.5<br/>squared_error = 321.638<br/>samples = 143<br/>value = 152.102>, fillcolor="#f1ba92"] ;
670 -> 671 ;
672 [label=<near_holiday_1.0 &le; 0.5<br/>squared_error = 290.472<br/>samples = 123<br/>value = 148.749>, fillcolor="#f1bb95"] ;
671 -> 672 ;
673 [label=<squared_error = 240.448<br/>samples = 88<br/>value = 143.94>, fillcolor="#f2be99"] ;
672 -> 673 ;
674 [label=<squared_error = 198.408<br/>samples = 35<br/>value = 161.54>, fillcolor="#f0b58a"] ;
672 -> 674 ;
675 [label=<price &le; 70.5<br/>squared_error = 194.918<br/>samples = 20<br/>value = 166.714>, fillcolor="#efb286"] ;
671 -> 675 ;
676 [label=<squared_error = 186.21<br/>samples = 12<br/>value = 155.889>, fillcolor="#f0b88f"] ;
675 -> 676 ;
677 [label=<squared_error = 47.639<br/>samples = 8<br/>value = 174.833>, fillcolor="#eeae7f"] ;
675 -> 677 ;
678 [label=<squared_error = 0.0<br/>samples = 13<br/>value = 172.0>, fillcolor="#efaf81"] ;
670 -> 678 ;
679 [label=<near_holiday_1.0 &le; 0.5<br/>squared_error = 619.061<br/>samples = 903<br/>value = 126.438>, fillcolor="#f4c7a8"] ;
657 -> 679 ;
680 [label=<airport_distance_km &le; 2139.685<br/>squared_error = 570.567<br/>samples = 728<br/>value = 129.25>, fillcolor="#f3c6a5"] ;
679 -> 680 ;
681 [label=<daysAgo &le; 117.5<br/>squared_error = 494.743<br/>samples = 398<br/>value = 133.661>, fillcolor="#f3c4a2"] ;
680 -> 681 ;
682 [label=<price &le; 113.0<br/>squared_error = 763.196<br/>samples = 200<br/>value = 129.511>, fillcolor="#f3c6a5"] ;
681 -> 682 ;
683 [label=<squared_error = 920.658<br/>samples = 93<br/>value = 123.0>, fillcolor="#f4c9ab"] ;
682 -> 683 ;
684 [label=<squared_error = 533.167<br/>samples = 107<br/>value = 135.741>, fillcolor="#f3c2a0"] ;
682 -> 684 ;
685 [label=<departure_weekday &le; 2.5<br/>squared_error = 189.806<br/>samples = 198<br/>value = 137.838>, fillcolor="#f2c19e"] ;
681 -> 685 ;
686 [label=<squared_error = 94.225<br/>samples = 98<br/>value = 133.611>, fillcolor="#f3c4a2"] ;
685 -> 686 ;
687 [label=<squared_error = 252.058<br/>samples = 100<br/>value = 142.314>, fillcolor="#f2bf9a"] ;
685 -> 687 ;
688 [label=<price &le; 106.5<br/>squared_error = 610.619<br/>samples = 330<br/>value = 123.741>, fillcolor="#f4c9aa"] ;
680 -> 688 ;
689 [label=<near_holiday_0.0 &le; 0.5<br/>squared_error = 490.046<br/>samples = 285<br/>value = 128.36>, fillcolor="#f3c6a6"] ;
688 -> 689 ;
690 [label=<squared_error = 461.81<br/>samples = 276<br/>value = 129.679>, fillcolor="#f3c6a5"] ;
689 -> 690 ;
691 [label=<squared_error = 0.0<br/>samples = 9<br/>value = 94.0>, fillcolor="#f7d9c3"] ;
689 -> 691 ;
692 [label=<daysAgo &le; 126.5<br/>squared_error = 448.554<br/>samples = 45<br/>value = 96.342>, fillcolor="#f7d7c1"] ;
688 -> 692 ;
693 [label=<squared_error = 321.213<br/>samples = 41<br/>value = 93.588>, fillcolor="#f7d9c3"] ;
692 -> 693 ;
694 [label=<squared_error = 674.16<br/>samples = 4<br/>value = 133.8>, fillcolor="#f3c3a1"] ;
692 -> 694 ;
695 [label=<daysAgo &le; 113.5<br/>squared_error = 651.979<br/>samples = 175<br/>value = 114.844>, fillcolor="#f5ceb1"] ;
679 -> 695 ;
696 [label=<price &le; 109.0<br/>squared_error = 473.1<br/>samples = 46<br/>value = 98.258>, fillcolor="#f7d6bf"] ;
695 -> 696 ;
697 [label=<arrival_airport &le; 0.5<br/>squared_error = 351.89<br/>samples = 34<br/>value = 90.48>, fillcolor="#f7dbc6"] ;
696 -> 697 ;
698 [label=<squared_error = 24.963<br/>samples = 24<br/>value = 99.912>, fillcolor="#f6d6be"] ;
697 -> 698 ;
699 [label=<squared_error = 455.871<br/>samples = 10<br/>value = 70.438>, fillcolor="#fae5d7"] ;
697 -> 699 ;
700 [label=<departure_airport &le; 1.5<br/>squared_error = 72.121<br/>samples = 12<br/>value = 122.562>, fillcolor="#f4c9ab"] ;
696 -> 700 ;
701 [label=<squared_error = 6.515<br/>samples = 10<br/>value = 125.643>, fillcolor="#f4c8a8"] ;
700 -> 701 ;
702 [label=<squared_error = 0.0<br/>samples = 2<br/>value = 101.0>, fillcolor="#f6d5bd"] ;
700 -> 702 ;
703 [label=<price &le; 80.5<br/>squared_error = 594.559<br/>samples = 129<br/>value = 120.057>, fillcolor="#f4cbad"] ;
695 -> 703 ;
704 [label=<departure_weekday &le; 1.5<br/>squared_error = 641.482<br/>samples = 23<br/>value = 143.343>, fillcolor="#f2be99"] ;
703 -> 704 ;
705 [label=<squared_error = 0.0<br/>samples = 6<br/>value = 178.0>, fillcolor="#eeac7c"] ;
704 -> 705 ;
706 [label=<squared_error = 370.217<br/>samples = 17<br/>value = 133.074>, fillcolor="#f3c4a2"] ;
704 -> 706 ;
707 [label=<price &le; 98.5<br/>squared_error = 455.04<br/>samples = 106<br/>value = 115.4>, fillcolor="#f5cdb1"] ;
703 -> 707 ;
708 [label=<squared_error = 268.29<br/>samples = 44<br/>value = 105.183>, fillcolor="#f6d3b9"] ;
707 -> 708 ;
709 [label=<squared_error = 462.619<br/>samples = 62<br/>value = 122.375>, fillcolor="#f4caab"] ;
707 -> 709 ;
710 [label=<departure_weekday &le; 2.5<br/>squared_error = 495.743<br/>samples = 158<br/>value = 158.718>, fillcolor="#f0b68d"] ;
656 -> 710 ;
711 [label=<price &le; 168.5<br/>squared_error = 88.425<br/>samples = 58<br/>value = 168.707>, fillcolor="#efb184"] ;
710 -> 711 ;
712 [label=<near_holiday_1.0 &le; 0.5<br/>squared_error = 15.053<br/>samples = 36<br/>value = 162.0>, fillcolor="#f0b48a"] ;
711 -> 712 ;
713 [label=<near_holiday_-1.0 &le; 0.5<br/>squared_error = 0.249<br/>samples = 22<br/>value = 159.538>, fillcolor="#f0b68c"] ;
712 -> 713 ;
714 [label=<squared_error = 0.0<br/>samples = 11<br/>value = 160.0>, fillcolor="#f0b58b"] ;
713 -> 714 ;
715 [label=<squared_error = 0.0<br/>samples = 11<br/>value = 159.0>, fillcolor="#f0b68c"] ;
713 -> 715 ;
716 [label=<departure_weekday &le; 1.0<br/>squared_error = 5.556<br/>samples = 14<br/>value = 167.333>, fillcolor="#efb285"] ;
712 -> 716 ;
717 [label=<squared_error = 0.0<br/>samples = 5<br/>value = 164.0>, fillcolor="#efb388"] ;
716 -> 717 ;
718 [label=<squared_error = 0.0<br/>samples = 9<br/>value = 169.0>, fillcolor="#efb184"] ;
716 -> 718 ;
719 [label=<departure_weekday &le; 0.5<br/>squared_error = 15.376<br/>samples = 22<br/>value = 179.629>, fillcolor="#eeab7b"] ;
711 -> 719 ;
720 [label=<daysAgo &le; 126.0<br/>squared_error = 90.25<br/>samples = 2<br/>value = 173.5>, fillcolor="#eeae80"] ;
719 -> 720 ;
721 [label=<squared_error = 0.0<br/>samples = 1<br/>value = 183.0>, fillcolor="#eda978"] ;
720 -> 721 ;
722 [label=<squared_error = 0.0<br/>samples = 1<br/>value = 164.0>, fillcolor="#efb388"] ;
720 -> 722 ;
723 [label=<daysAgo &le; 124.5<br/>squared_error = 8.424<br/>samples = 20<br/>value = 180.0>, fillcolor="#eeab7b"] ;
719 -> 723 ;
724 [label=<near_holiday_-1.0 &le; 0.5<br/>squared_error = 0.24<br/>samples = 7<br/>value = 177.6>, fillcolor="#eeac7d"] ;
723 -> 724 ;
725 [label=<squared_error = 0.0<br/>samples = 3<br/>value = 177.0>, fillcolor="#eeac7d"] ;
724 -> 725 ;
726 [label=<squared_error = 0.0<br/>samples = 4<br/>value = 178.0>, fillcolor="#eeac7c"] ;
724 -> 726 ;
727 [label=<price &le; 196.0<br/>squared_error = 8.389<br/>samples = 13<br/>value = 181.043>, fillcolor="#eeaa7a"] ;
723 -> 727 ;
728 [label=<squared_error = 4.917<br/>samples = 10<br/>value = 182.167>, fillcolor="#edaa79"] ;
727 -> 728 ;
729 [label=<squared_error = 0.0<br/>samples = 3<br/>value = 177.0>, fillcolor="#eeac7d"] ;
727 -> 729 ;
730 [label=<departure_weekday &le; 3.5<br/>squared_error = 642.412<br/>samples = 100<br/>value = 152.827>, fillcolor="#f1b991"] ;
710 -> 730 ;
731 [label=<price &le; 174.5<br/>squared_error = 688.179<br/>samples = 26<br/>value = 130.341>, fillcolor="#f3c5a4"] ;
730 -> 731 ;
732 [label=<near_holiday_1.0 &le; 0.5<br/>squared_error = 8.408<br/>samples = 10<br/>value = 104.941>, fillcolor="#f6d3ba"] ;
731 -> 732 ;
733 [label=<squared_error = 0.0<br/>samples = 1<br/>value = 97.0>, fillcolor="#f7d7c0"] ;
732 -> 733 ;
734 [label=<squared_error = 0.0<br/>samples = 9<br/>value = 106.0>, fillcolor="#f6d2b9"] ;
732 -> 734 ;
735 [label=<daysAgo &le; 126.5<br/>squared_error = 454.222<br/>samples = 16<br/>value = 146.333>, fillcolor="#f1bd97"] ;
731 -> 735 ;
736 [label=<price &le; 207.0<br/>squared_error = 142.222<br/>samples = 11<br/>value = 137.667>, fillcolor="#f2c19e"] ;
735 -> 736 ;
737 [label=<squared_error = 2.871<br/>samples = 9<br/>value = 134.438>, fillcolor="#f3c3a1"] ;
736 -> 737 ;
738 [label=<squared_error = 506.25<br/>samples = 2<br/>value = 163.5>, fillcolor="#efb489"] ;
736 -> 738 ;
739 [label=<price &le; 194.5<br/>squared_error = 627.556<br/>samples = 5<br/>value = 163.667>, fillcolor="#efb488"] ;
735 -> 739 ;
740 [label=<squared_error = 281.25<br/>samples = 3<br/>value = 178.5>, fillcolor="#eeac7c"] ;
739 -> 740 ;
741 [label=<squared_error = 0.0<br/>samples = 2<br/>value = 134.0>, fillcolor="#f3c3a1"] ;
739 -> 741 ;
742 [label=<price &le; 186.5<br/>squared_error = 347.76<br/>samples = 74<br/>value = 161.661>, fillcolor="#f0b58a"] ;
730 -> 742 ;
743 [label=<near_holiday_-1.0 &le; 0.5<br/>squared_error = 361.596<br/>samples = 59<br/>value = 158.067>, fillcolor="#f0b78d"] ;
742 -> 743 ;
744 [label=<departure_weekday &le; 4.5<br/>squared_error = 557.716<br/>samples = 24<br/>value = 145.769>, fillcolor="#f1bd97"] ;
743 -> 744 ;
745 [label=<squared_error = 315.418<br/>samples = 13<br/>value = 159.68>, fillcolor="#f0b68c"] ;
744 -> 745 ;
746 [label=<squared_error = 27.781<br/>samples = 11<br/>value = 120.929>, fillcolor="#f4caac"] ;
744 -> 746 ;
747 [label=<price &le; 182.0<br/>squared_error = 7.543<br/>samples = 35<br/>value = 167.471>, fillcolor="#efb185"] ;
743 -> 747 ;
748 [label=<squared_error = 2.12<br/>samples = 34<br/>value = 167.14>, fillcolor="#efb285"] ;
747 -> 748 ;
749 [label=<squared_error = 0.0<br/>samples = 1<br/>value = 184.0>, fillcolor="#eda977"] ;
747 -> 749 ;
750 [label=<departure_weekday &le; 4.5<br/>squared_error = 22.14<br/>samples = 15<br/>value = 176.364>, fillcolor="#eead7e"] ;
742 -> 750 ;
751 [label=<near_holiday_1.0 &le; 0.5<br/>squared_error = 3.24<br/>samples = 6<br/>value = 171.4>, fillcolor="#efaf82"] ;
750 -> 751 ;
752 [label=<squared_error = 0.0<br/>samples = 5<br/>value = 172.0>, fillcolor="#efaf81"] ;
751 -> 752 ;
753 [label=<squared_error = 0.0<br/>samples = 1<br/>value = 166.0>, fillcolor="#efb286"] ;
751 -> 753 ;
754 [label=<near_holiday_1.0 &le; 0.5<br/>squared_error = 0.25<br/>samples = 9<br/>value = 180.5>, fillcolor="#eeab7a"] ;
750 -> 754 ;
755 [label=<squared_error = 0.0<br/>samples = 4<br/>value = 181.0>, fillcolor="#eeaa7a"] ;
754 -> 755 ;
756 [label=<squared_error = 0.0<br/>samples = 5<br/>value = 180.0>, fillcolor="#eeab7b"] ;
754 -> 756 ;
757 [label=<price &le; 161.0<br/>squared_error = 602.95<br/>samples = 1943<br/>value = 108.336>, fillcolor="#f6d1b7"] ;
655 -> 757 ;
758 [label=<daysAgo &le; 117.5<br/>squared_error = 449.679<br/>samples = 1813<br/>value = 105.437>, fillcolor="#f6d3b9"] ;
757 -> 758 ;
759 [label=<price &le; 105.5<br/>squared_error = 400.764<br/>samples = 791<br/>value = 99.96>, fillcolor="#f6d6be"] ;
758 -> 759 ;
760 [label=<price &le; 42.5<br/>squared_error = 350.486<br/>samples = 688<br/>value = 97.845>, fillcolor="#f7d7c0"] ;
759 -> 760 ;
761 [label=<departure_weekday &le; 0.5<br/>squared_error = 75.861<br/>samples = 50<br/>value = 114.645>, fillcolor="#f5ceb2"] ;
760 -> 761 ;
762 [label=<squared_error = 0.0<br/>samples = 4<br/>value = 128.0>, fillcolor="#f3c7a6"] ;
761 -> 762 ;
763 [label=<daysAgo &le; 113.5<br/>squared_error = 63.626<br/>samples = 46<br/>value = 113.29>, fillcolor="#f5ceb3"] ;
761 -> 763 ;
764 [label=<squared_error = 57.349<br/>samples = 30<br/>value = 110.723>, fillcolor="#f5d0b5"] ;
763 -> 764 ;
765 [label=<squared_error = 32.903<br/>samples = 16<br/>value = 118.773>, fillcolor="#f4ccae"] ;
763 -> 765 ;
766 [label=<near_holiday_1.0 &le; 0.5<br/>squared_error = 348.326<br/>samples = 638<br/>value = 96.584>, fillcolor="#f7d7c1"] ;
760 -> 766 ;
767 [label=<price &le; 102.5<br/>squared_error = 333.5<br/>samples = 518<br/>value = 97.952>, fillcolor="#f7d7c0"] ;
766 -> 767 ;
768 [label=<squared_error = 330.555<br/>samples = 512<br/>value = 98.333>, fillcolor="#f7d6bf"] ;
767 -> 768 ;
769 [label=<squared_error = 55.36<br/>samples = 6<br/>value = 77.2>, fillcolor="#f9e2d1"] ;
767 -> 769 ;
770 [label=<departure_airport &le; 0.5<br/>squared_error = 368.364<br/>samples = 120<br/>value = 90.298>, fillcolor="#f8dbc6"] ;
766 -> 770 ;
771 [label=<squared_error = 187.963<br/>samples = 41<br/>value = 81.712>, fillcolor="#f8dfcd"] ;
770 -> 771 ;
772 [label=<squared_error = 405.305<br/>samples = 79<br/>value = 95.226>, fillcolor="#f7d8c2"] ;
770 -> 772 ;
773 [label=<departure_weekday &le; 2.5<br/>squared_error = 511.506<br/>samples = 103<br/>value = 113.349>, fillcolor="#f5ceb3"] ;
759 -> 773 ;
774 [label=<departure_weekday &le; 0.5<br/>squared_error = 246.321<br/>samples = 26<br/>value = 138.684>, fillcolor="#f2c19d"] ;
773 -> 774 ;
775 [label=<price &le; 125.5<br/>squared_error = 0.204<br/>samples = 10<br/>value = 155.714>, fillcolor="#f0b88f"] ;
774 -> 775 ;
776 [label=<squared_error = 0.0<br/>samples = 7<br/>value = 156.0>, fillcolor="#f0b88f"] ;
775 -> 776 ;
777 [label=<squared_error = 0.0<br/>samples = 3<br/>value = 155.0>, fillcolor="#f0b890"] ;
775 -> 777 ;
778 [label=<departure_weekday &le; 1.5<br/>squared_error = 122.021<br/>samples = 16<br/>value = 128.75>, fillcolor="#f3c6a6"] ;
774 -> 778 ;
779 [label=<squared_error = 30.166<br/>samples = 12<br/>value = 124.789>, fillcolor="#f4c8a9"] ;
778 -> 779 ;
780 [label=<squared_error = 184.96<br/>samples = 4<br/>value = 143.8>, fillcolor="#f2be99"] ;
778 -> 780 ;
781 [label=<departure_airport &le; 0.5<br/>squared_error = 353.063<br/>samples = 77<br/>value = 106.164>, fillcolor="#f6d2b9"] ;
773 -> 781 ;
782 [label=<price &le; 143.5<br/>squared_error = 350.503<br/>samples = 49<br/>value = 113.093>, fillcolor="#f5cfb3"] ;
781 -> 782 ;
783 [label=<squared_error = 286.704<br/>samples = 38<br/>value = 118.731>, fillcolor="#f4ccae"] ;
782 -> 783 ;
784 [label=<squared_error = 68.061<br/>samples = 11<br/>value = 93.211>, fillcolor="#f7d9c4"] ;
782 -> 784 ;
785 [label=<near_holiday_-1.0 &le; 0.5<br/>squared_error = 117.521<br/>samples = 28<br/>value = 93.75>, fillcolor="#f7d9c3"] ;
781 -> 785 ;
786 [label=<squared_error = 103.179<br/>samples = 20<br/>value = 89.182>, fillcolor="#f8dbc7"] ;
785 -> 786 ;
787 [label=<squared_error = 2.16<br/>samples = 8<br/>value = 103.8>, fillcolor="#f6d4bb"] ;
785 -> 787 ;
788 [label=<near_holiday_-1.0 &le; 0.5<br/>squared_error = 445.818<br/>samples = 1022<br/>value = 109.779>, fillcolor="#f5d0b6"] ;
758 -> 788 ;
789 [label=<price &le; 60.5<br/>squared_error = 410.576<br/>samples = 739<br/>value = 106.202>, fillcolor="#f6d2b9"] ;
788 -> 789 ;
790 [label=<near_holiday_1.0 &le; 0.5<br/>squared_error = 356.467<br/>samples = 311<br/>value = 111.884>, fillcolor="#f5cfb4"] ;
789 -> 790 ;
791 [label=<near_holiday_0.0 &le; 0.5<br/>squared_error = 308.65<br/>samples = 197<br/>value = 107.795>, fillcolor="#f6d1b7"] ;
790 -> 791 ;
792 [label=<squared_error = 290.953<br/>samples = 177<br/>value = 105.616>, fillcolor="#f6d3b9"] ;
791 -> 792 ;
793 [label=<squared_error = 78.955<br/>samples = 20<br/>value = 126.212>, fillcolor="#f4c8a8"] ;
791 -> 793 ;
794 [label=<departure_airport &le; 0.5<br/>squared_error = 357.536<br/>samples = 114<br/>value = 119.345>, fillcolor="#f4cbae"] ;
790 -> 794 ;
795 [label=<squared_error = 78.992<br/>samples = 9<br/>value = 84.909>, fillcolor="#f8decb"] ;
794 -> 795 ;
796 [label=<squared_error = 289.555<br/>samples = 105<br/>value = 121.712>, fillcolor="#f4caac"] ;
794 -> 796 ;
797 [label=<departure_weekday &le; 3.5<br/>squared_error = 409.334<br/>samples = 428<br/>value = 102.062>, fillcolor="#f6d4bc"] ;
789 -> 797 ;
798 [label=<near_holiday_1.0 &le; 0.5<br/>squared_error = 312.799<br/>samples = 198<br/>value = 96.396>, fillcolor="#f7d7c1"] ;
797 -> 798 ;
799 [label=<squared_error = 291.955<br/>samples = 156<br/>value = 99.018>, fillcolor="#f7d6bf"] ;
798 -> 799 ;
800 [label=<squared_error = 287.527<br/>samples = 42<br/>value = 88.043>, fillcolor="#f8dcc8"] ;
798 -> 800 ;
801 [label=<near_holiday_1.0 &le; 0.5<br/>squared_error = 440.226<br/>samples = 230<br/>value = 106.549>, fillcolor="#f6d2b8"] ;
797 -> 801 ;
802 [label=<squared_error = 246.496<br/>samples = 167<br/>value = 101.242>, fillcolor="#f6d5bd"] ;
801 -> 802 ;
803 [label=<squared_error = 681.405<br/>samples = 63<br/>value = 120.683>, fillcolor="#f4caac"] ;
801 -> 803 ;
804 [label=<price &le; 131.0<br/>squared_error = 418.755<br/>samples = 283<br/>value = 118.991>, fillcolor="#f4cbae"] ;
788 -> 804 ;
805 [label=<daysAgo &le; 123.5<br/>squared_error = 346.529<br/>samples = 252<br/>value = 116.292>, fillcolor="#f5cdb0"] ;
804 -> 805 ;
806 [label=<price &le; 49.5<br/>squared_error = 378.527<br/>samples = 143<br/>value = 111.373>, fillcolor="#f5cfb4"] ;
805 -> 806 ;
807 [label=<squared_error = 80.966<br/>samples = 45<br/>value = 120.816>, fillcolor="#f4caac"] ;
806 -> 807 ;
808 [label=<squared_error = 461.629<br/>samples = 98<br/>value = 106.557>, fillcolor="#f6d2b8"] ;
806 -> 808 ;
809 [label=<departure_airport &le; 0.5<br/>squared_error = 231.617<br/>samples = 109<br/>value = 122.727>, fillcolor="#f4c9ab"] ;
805 -> 809 ;
810 [label=<squared_error = 243.449<br/>samples = 20<br/>value = 133.533>, fillcolor="#f3c4a2"] ;
809 -> 810 ;
811 [label=<squared_error = 199.233<br/>samples = 89<br/>value = 120.444>, fillcolor="#f4cbad"] ;
809 -> 811 ;
812 [label=<departure_weekday &le; 2.5<br/>squared_error = 457.632<br/>samples = 31<br/>value = 141.312>, fillcolor="#f2bf9b"] ;
804 -> 812 ;
813 [label=<departure_weekday &le; 1.5<br/>squared_error = 267.746<br/>samples = 18<br/>value = 156.846>, fillcolor="#f0b78e"] ;
812 -> 813 ;
814 [label=<squared_error = 209.449<br/>samples = 11<br/>value = 146.467>, fillcolor="#f1bd97"] ;
813 -> 814 ;
815 [label=<squared_error = 0.0<br/>samples = 7<br/>value = 171.0>, fillcolor="#efb082"] ;
813 -> 815 ;
816 [label=<airport_distance_km &le; 993.364<br/>squared_error = 59.862<br/>samples = 13<br/>value = 122.955>, fillcolor="#f4c9ab"] ;
812 -> 816 ;
817 [label=<squared_error = 0.0<br/>samples = 2<br/>value = 105.0>, fillcolor="#f6d3ba"] ;
816 -> 817 ;
818 [label=<squared_error = 10.377<br/>samples = 11<br/>value = 125.789>, fillcolor="#f4c8a8"] ;
816 -> 818 ;
819 [label=<departure_airport &le; 0.5<br/>squared_error = 946.174<br/>samples = 130<br/>value = 150.091>, fillcolor="#f1bb94"] ;
757 -> 819 ;
820 [label=<near_holiday_1.0 &le; 0.5<br/>squared_error = 853.847<br/>samples = 122<br/>value = 153.678>, fillcolor="#f1b991"] ;
819 -> 820 ;
821 [label=<near_holiday_-1.0 &le; 0.5<br/>squared_error = 822.617<br/>samples = 106<br/>value = 149.288>, fillcolor="#f1bb94"] ;
820 -> 821 ;
